[{
  "input_weights": [[0.286, 0.38, -0.679, 0.421, -0.863, 0.516, 0.99, 0.01, -0.535, -0.264, -0.131, 0.444, -0.838, 0.385, -0.809, -0.362, 0.232, -0.784, -0.487, 0.43, 0.926, 0.942, -0.939, -0.671, -0.205, -0.263, 0.768, -0.72, -0.585, 0.146, 0.182, 0.496, 0.244, 0.19, 0.971, -0.509, -0.066, -0.275, -0.376, 0.299, 0.521, -0.301, 0.689, -0.304, -0.652, 0.647, -0.525, 0.979, -0.755, 0.566, 0.959, -0.454, 0.255, 0.764, -0.407, -0.25, -0.185, 0.987, 0.461, 0.884, 0.375, 0.16, 0.072, 0.583, 0.885, -0.888, 0.349, 0.837, -0.305, 0.672, 0.365, -0.462, 0.979, -0.154, -0.26, 0.553, 0.656, -0.049, 0.841, 0.387, -0.478, 0.525, 0.703, 0.527, 0.79, -0.607, 0.059, -0.594, 0.221, 0.132, -0.49, -0.683, -0.002, -0.625, -0.748, -0.493, -0.723, 0.825, 0.694, -0.31, 0.238, 0.624, 0.751, -0.352, 0.252, 0.648, 0.178, -0.308, -0.092, 0.552, 0.155, -0.432, -0.924, 0.996, 0.768, 0.331, 0.622, 0.393, -0.75, -0.895, 0.136, -0.3, -0.715, 0.871, -0.727, 0.402, -0.114, 0.455, -0.126, 0.893, 0.212, -0.198, 0.277, -0.853, 0.726, 0.583, -0.666, 0.749, -0.762, -0.251, -0.166, -0.533, -0.292, 0.147, -0.503, 0.494, 0.497, -0.778, -0.949, 0.4, 0.658, -0.648, 0.052, 0.786, 0.116, 0.83, -0.222, 0.017, 0.748, -0.528, 0.246, -0.282, -0.103, 0.773, 0.002, 0.664, 0.843, 0.881, -0.905, 0.908, 0.502, -0.795, -0.768, 0.259, 0.406, -0.538, 0.12, -0.894, 0.574, -0.865, -0.418, 0.175, 0.62, -0.184, -0.281, 0.502, -0.447, -0.213, -0.263, 0.24, 0.707, -0.507, 0.779, -0.949, 0.18, 0.446, -0.984, -0.064, -0.433, 0.752, 0.551, 0.101, 0.236, -0.416, 0.449, -0.154, 0.901, -0.562, -0.14, 0.089, 0.223, 0.709, 0.965, 0.008, 0.591, -0.743, -0.731, 0.33, -0.773, -0.536, 0.041, -0.047, -0.7, -0.97, 0.44, 0.027, -0.396, 0.807, -0.072, 0.186, -0.532, 0.465, 0.756, -0.051, -0.754, 0.285, -0.986, 0.745, 0.677, 0.541, -0.367, 0.971, 0.871, 0.445, -0.709, -0.044, 0.42, -0.405, 0.872, 0.44, 0.087, 0.933, 0.855, 0.727, -0.96, 0.268, 0.11, 0.816, -0.462, -0.828, 0.921, -0.633, -0.358, 0.368, -0.852, -0.457, -0.311, -0.768, 0.531, -0.548, 0.278, 0.528, 0.464, -0.304, -0.13, 0.937, 0.985, 0.168, -0.645, -0.666, 0.714, -0.443, 0.324, -0.742, 0.136, 0.624, -0.45, -0.362, -0.299, 0.072, -0.845, -0.906, 0.369, 0.121, -0.882, 0.473, 0.561, 0.007, -0.771, 0.643, 0.495, 0.962, -0.576, 0.007, 0.649, -0.505, -0.184, 0.245, -0.436, -0.108, 0.652, 0.729, -0.383, -0.563, 0.212, -0.42, 0.682, -0.597, -0.33, -0.335, 0.824, -0.609, 0.981, 0.202, -0.784, 0.656, 0.631, 0.58, 0.496, 0.891, -0.75, -0.581, -0.779, 0.727, 0.722, 0.378, -0.79, -0.812, 0.071, 0.693, -0.439, -0.248, -0.428, 0.183, 0.161, -0.225, 0.291, -0.675, -0.842, 0.642, 0.681, 0.641, -0.539, -0.695, 0.714, 0.322, -0.495, -0.466, 0.325, 0.251, 0.481, -0.086, 0.755, -0.69, 0.854, 0.305, -0.151, 0.701, -0.83, 0.837, -0.089, 0.511, 0.086, 0.96, -0.291, 0.479, -0.319, 0.226, 0.322, -0.786, -0.426, 0.418, -0.259, 0.708, -0.528, -0.992, -0.219, 0.799, -0.195, 0.81, 0.451, 0.899, 0.747, -0.509, -0.005, 0.771, 0.237, -0.296, -0.127, -0.416, 0.231, 0.008, -0.372, 0.585, 0.491, -0.031, 0.742, -0.648, -0.911, 0.578, -0.608, 0.518, -0.389, -0.481, 0.992, -0.601, 0.26, 0.604, 0.418, 0.511, 0.721, 0.391, 0.556, 0.073, -0.22, 0.555, 0.547, 0.844, -0.6, -0.911, 0.857, -0.093, 0.925, 0.976, -0.566, -0.287, 0.784, 0.45, -0.785, 0.682, 0.981, 0.951, 0.855, -0.182, -0.362, -0.725, 0.293, -0.973, 0.394, -0.221, 0.494, -0.063, -0.355, -0.027, -0.808, -0.271, 0.683, -0.232, 0.639, 0.853, 0.544, 0.611, 0.343, -0.752, 0.757, -0.508, -0.77, -0.378, 0.874, 0.455, 0.287, -0.487, 0.165, 0.803, 0.543, -0.18, -0.6, 0.374, 0.398, 0.721, 0.448, -0.616, 0.658, 0.89, 0.479, -0.152, -0.493, 0.557, 0.821, -0.848, -0.189, -0.685, 0.275, -0.88, 0.898, 0.422, 0.557, -0.583, -0.955, 0.251, -0.244, 0.898, 0.085, 0.71, 0.5, -0.025, -0.601, 0.9, -0.776, -0.322, 0.896, -0.675, 0.84, 0.42, -0.766, 0.023, -0.867, 0.712, 0.759, -0.665, -0.017, -0.812, -0.782, 0.611, -0.004, 0.69, 0.994, 0.458, 0.527, -0.276, -0.804, 0.919, 0.416, 0.828, -0.757, -0.03, 0.478, -0.417, 0.55, 0.562, 0.231, 0.581, -0.427, -0.555, -0.48, -0.874, 0.827, -0.981, 0.301, 0.352, 0.859, 0.278, 0.76, -0.942, 0.939, -0.199, -0.664, -0.126, -0.519, 0.091, 0.636, 0.276, -0.487, -0.466, 0.434, 0.518, -0.363, -0.807, 0.176, -0.986, 0.112, 0.447, -0.456, -0.685, -0.129, 0.57, -0.223, -0.938, -0.684, 0.818, 0.867, -0.774, -0.175, 0.251, -0.538, 0.272, -0.434, 0.602, 0.847, 0.737, -0.078, -0.246, 0.78, -0.323, 0.321, 0.731, -0.236, -0.623, 0.569, 0.773, -0.227, 0.497, -0.07, 0.462, -0.367, -0.698, 0.947, -0.003, -0.627, -0.135, -0.888, -0.36, -0.202, 0.133, -0.533, -0.883, -0.055, -0.174, -0.209, 0.207, -0.452, -0.98, 0.874, 0.871, -0.96], [0.431, -0.142, -0.017, 0.819, 0.998, -0.476, -0.284, 0.233, -0.474, 0.256, 0.276, -0.46, 0.606, -0.683, 0.689, -0.88, -0.947, -0.133, 0.851, 0.49, -0.419, 0.793, 0.69, -0.465, -0.673, 0.689, 0.067, -0.786, 0.717, -0.989, 0.645, -0.503, 0.172, -0.717, 0.766, -0.519, 0.759, -0.723, 0.034, 0.184, 0.766, 0.826, -0.344, -0.598, -0.491, -0.598, -0.809, -0.429, -0.374, -0.967, -0.171, -0.364, 0.92, -0.32, 0.724, 0.324, 0.85, 0.026, -0.51, 0.617, -0.419, 0.201, -0.614, -0.152, 0.46, -0.744, 0.811, -0.772, 0.977, -0.656, -0.749, -0.105, -0.322, -0.786, 0.113, -0.348, -0.504, -0.801, 0.019, 0.264, 0.532, -0.99, 0.186, -0.567, 0.552, -0.438, 0.29, 0.848, 0.932, -0.556, -0.295, 0.566, 0.665, 0.033, 0.21, -0.716, 0.209, -0.919, -0.774, -0.035, 0.882, -0.058, -0.772, 0.689, -0.237, -0.575, -0.046, 0.047, 0.935, -0.067, -0.645, 0.165, -0.023, 0.65, 0.305, 0.901, -0.155, -0.877, -0.671, -0.073, -0.417, 0.341, -0.359, -0.869, -0.766, -0.758, -0.885, -0.583, -0.431, -0.01, 0.488, 0.297, -0.205, 0.478, 0.741, -0.06, 0.613, -0.545, -0.976, 0.299, -0.188, -0.223, 0.398, -0.367, 0.395, -0.482, 0.678, 0.658, 0.043, 0.092, 0.607, 0.706, -0.126, -0.36, -0.334, -0.36, -0.414, -0.6, 0.931, 0.036, 0.781, -0.557, 0.964, -0.444, 0.216, -0.474, 0.249, -0.626, 0.763, 0.124, -0.666, -0.749, -0.324, 0.196, -0.85, 0.506, 0.341, -0.233, -0.736, 0.406, -0.837, 0.278, -0.639, -0.548, 0.483, -0.088, -0.847, -0.932, -0.306, 0.508, 0.288, -0.408, 0.718, 0.497, -0.03, -0.22, 0.831, -0.141, -0.625, -0.484, -0.382, 0.691, 0.033, 0.646, 0.602, 0.788, 0.992, -0.245, 0.26, -0.377, 0.824, 0.034, -0.416, 0.44, 0.84, 0.032, 0.585, 0.185, 0.81, 0.06, 0.18, -0.619, -0.967, 0.165, 0.525, 0.271, -0.893, 0.703, 0.448, -0.031, 0.694, -0.349, 0.925, -0.552, 0.533, -0.137, -0.244, 0.253, -0.915, 0.924, -0.367, 0.498, 0.017, -0.144, 0.971, 0.956, -0.262, 0.253, 0.77, 0.153, -0.034, -0.364, 0.672, 0.663, -0.82, -0.1, -0.953, 0.35, -0.866, -0.979, 0.915, -0.698, -0.508, -0.102, 0.392, 0.871, 0.945, -0.318, -0.467, -0.787, 0.906, 0.196, 0.495, 0.981, 0.997, 0.046, 0.846, 0.91, -0.651, 0.053, -0.422, 0.644, 0.844, 0.37, -0.214, -0.804, 0.995, 0.402, 0.881, 0.925, -0.409, 0.802, -0.152, 0.078, 0.6, 0.657, -0.823, 0.712, 0.018, -0.673, -0.141, 0.774, 0.374, 0.019, -0.137, 0.015, 0.532, 0.726, -0.279, -0.979, 0.271, -0.93, 0.87, -0.766, -0.09, 0.068, -0.74, 0.93, 0.972, 0.708, 0.541, 0.605, 0.601, 0.921, 0.155, -0.917, -0.031, 0.61, 0.051, -0.714, -0.785, -0.38, 0.62, 0.191, -0.932, 0.743, -0.921, -0.929, -0.648, 0.859, -0.946, -0.124, -0.969, -0.709, 0.487, 0.514, 0.299, 0.436, -0.046, -0.171, -0.859, -0.976, 0.046, 0.537, 0.271, 0.994, -0.401, 0.612, 0.536, -0.15, 0.532, 0.069, 0.07, 0.098, -0.236, -0.877, -0.534, 0.681, -0.948, 0.258, -0.805, 0.937, -0.269, -0.862, -0.684, 0.738, -0.786, 0.415, 0.573, -0.35, 0.464, -0.185, -0.614, 0.775, 0.772, 0.356, 0.326, 0.078, 0.376, -0.155, -0.572, -0.939, -0.276, 0.767, 0.165, -0.951, -0.773, -0.899, -0.524, 0.103, -0.509, -0.699, 0.552, -0.213, -0.319, 0.099, -0.157, -0.228, 0.146, 0.312, -0.407, 0.105, 0.316, -0.596, -0.688, -0.204, -0.782, 0.897, -0.37, 0.214, -0.953, 0.732, -0.842, 0.277, 0.715, -0.097, 0.735, 0.615, -0.636, 0.787, 0.244, -0.659, 0.245, 0.343, -0.824, -0.434, 0.7, 0.952, 0.263, -0.583, 0.769, 0.327, -0.049, 0.939, -0.58, 0.304, -0.116, 0.84, 0.23, -0.264, 0.584, -0.958, 0.954, -0.496, -0.683, 0.138, -0.898, 0.598, 0.945, -0.935, -0.042, -0.099, 0.083, 0.552, 0.982, -0.443, -0.075, -0.678, -0.88, -0.626, 0.758, -0.156, 0.418, 0.947, 0.392, 0.367, -0.372, -0.446, -0.178, 0.538, -0.628, -1.0, -0.204, -0.278, 0.578, 0.425, 0.195, -0.392, -0.958, 0.093, -0.777, -0.164, -0.005, 0.214, 0.741, 0.031, 0.594, 0.902, 0.459, 0.528, 0.308, 0.301, 0.644, -0.901, 0.611, 0.078, 0.297, 0.761, -0.252, -0.666, -0.256, 0.729, -0.184, -0.628, 0.283, 0.154, -0.461, 0.294, 0.215, 0.993, 0.822, -0.689, 0.214, 0.129, -0.996, 0.662, -0.405, 0.784, -0.252, 0.71, 0.194, 0.968, 0.027, 0.689, 0.787, 0.59, -0.217, -0.707, 0.259, -0.601, -0.012, 0.684, -0.119, -0.705, -0.978, 0.518, 0.838, 0.053, -0.317, 0.461, -0.514, -0.38, -0.169, -0.077, 0.392, -0.683, 0.897, 0.743, 0.57, -0.563, -0.282, -0.513, 0.092, 0.425, 0.155, 0.76, -0.461, 0.263, 0.726, -0.748, -0.488, -0.975, 0.486, 0.543, -0.745, -0.678, -0.419, 0.433, -0.92, -0.694, 0.789, -0.208, 0.045, -0.183, -0.687, -0.658, 0.652, -0.344, 0.795, 0.409, -0.013, 0.349, 0.117, -0.086, 0.048, 0.636, -0.625, 0.938, 0.978, -0.416, -0.867, -0.145, 0.695, -0.359, 0.686, -0.579, 0.782, 0.684, 0.914, -0.723, 0.609, -0.184, 0.621, 0.454, -0.282, -0.075, 0.402, 0.87, 0.291, -0.812, -0.003, -0.54, -0.127, 0.079, 0.968], [-0.706, -0.896, -0.492, 0.209, 0.32, 0.531, 0.156, -0.087, -0.012, 0.119, -0.238, -0.121, 0.613, -0.898, -0.911, 0.047, 0.869, -0.651, 0.043, 0.31, 0.421, -0.142, 0.441, 0.806, -0.481, 0.286, 0.78, 0.004, 0.637, 0.087, -0.003, -0.374, 0.009, 0.135, -0.958, 0.605, 0.58, 0.768, -0.638, -0.288, 0.861, -0.391, 0.239, -0.181, -0.226, 0.899, -0.57, -0.934, 0.431, 0.499, 0.975, 0.977, -0.476, -0.028, 0.437, -0.616, 0.363, -0.542, -0.369, 0.21, 0.325, -0.641, 0.688, -0.222, 0.557, -0.203, -0.191, -0.84, -0.855, -0.157, 0.9, -0.845, -0.194, 0.396, -0.093, -0.923, 0.118, 0.538, 0.509, -0.599, 0.742, -0.893, -0.785, 0.427, 0.287, -0.061, -0.878, 0.76, 0.303, 0.415, -0.799, 0.32, 0.257, 0.75, -0.857, 0.306, 0.873, 0.544, 0.558, -0.589, -0.341, -0.603, -0.066, -0.131, -0.877, -0.026, 0.237, 0.348, -0.151, 0.034, 0.063, -0.429, 0.472, 0.879, 0.744, 0.095, 0.941, 0.004, -0.572, 0.498, -0.358, 0.35, 0.098, -0.329, 0.945, -0.449, 0.853, -0.277, 0.821, -0.709, 0.721, -0.636, -0.792, 0.293, 0.852, -0.81, -0.527, 0.557, -0.349, -0.024, -0.167, 0.105, 0.995, 0.362, -0.693, 0.158, 0.032, 0.884, 0.378, 0.409, 0.534, -0.489, -0.33, 0.385, -0.596, 0.446, -0.364, 0.412, 0.319, 0.32, 0.363, 0.802, -0.646, 0.042, -0.137, -0.777, 0.741, -0.12, 0.91, 0.697, 0.663, 0.585, 0.789, 0.448, -0.358, -0.223, 0.649, -0.108, -0.403, -0.062, -0.006, -0.973, -0.099, 0.152, 0.934, -0.56, 0.458, -0.176, -0.704, -0.727, 0.265, 0.386, -0.909, 0.252, -0.233, 0.209, -0.345, -0.447, 0.611, -0.073, -0.834, -0.193, 0.381, 0.499, 0.881, 0.209, -0.741, -0.155, -0.749, -0.009, 0.047, -0.493, 0.462, -0.931, -0.739, 0.409, 0.096, -0.661, -0.336, 0.768, 0.706, 0.549, -0.681, -0.374, 0.036, -0.336, -0.686, 0.801, -0.348, 0.303, 0.24, 0.107, -0.016, 0.083, 0.706, -0.409, 0.805, 0.842, 0.997, 0.064, -0.263, 0.295, 0.552, -0.662, -0.684, -0.985, 0.09, 0.988, 0.672, 0.137, -0.793, 0.67, -0.017, -0.255, -0.518, -0.367, 0.963, -0.613, -0.243, -0.059, 0.328, 0.145, 0.954, -0.039, -0.652, 0.286, 0.942, -0.114, -0.429, -0.283, -0.705, 0.96, 0.878, -0.449, 0.847, 0.422, 0.951, 0.721, -0.932, -0.775, -0.9, 0.362, 0.636, 0.227, -0.084, 0.077, -0.697, -0.045, -0.177, 0.595, 0.747, -0.752, -0.258, 0.193, 0.203, -0.537, 0.59, -0.954, 0.188, -0.476, -0.99, 0.589, -0.978, 0.852, 0.93, -0.352, -0.83, 0.423, -0.822, -0.653, 0.622, 0.152, -0.871, 0.455, -0.921, -0.781, -0.892, 0.927, 0.117, -0.149, 0.801, -0.376, -0.101, 0.254, -0.613, 0.033, 0.928, 0.979, -0.605, -0.626, -0.786, -0.745, 0.079, 0.145, 0.551, -0.292, -0.063, -0.365, -0.396, -0.384, -0.592, -0.651, 0.419, 0.089, 0.59, -0.33, 0.94, 0.813, -0.371, 0.744, 0.099, 0.551, 0.263, -0.053, 0.478, -0.44, -0.687, -0.401, -0.789, -0.603, -0.944, 0.638, -0.828, -0.909, -0.676, -0.071, 0.54, 0.346, 0.993, 0.654, 0.088, -0.88, -0.472, -0.82, 0.531, -0.602, 0.015, 0.327, -0.742, -0.541, 0.162, 0.016, -0.115, 0.52, 0.402, 0.017, 0.541, 0.553, -0.577, -0.855, 0.632, 0.678, 0.937, -0.52, 0.628, -0.173, 0.614, 0.556, -0.084, -0.33, -0.842, -0.56, 0.318, 0.248, -0.669, 0.678, 0.319, 0.934, 0.717, -0.206, 0.501, 0.71, -0.201, -0.232, 0.015, -0.794, -0.554, 0.987, 0.836, 0.207, 0.033, 0.712, -0.465, -0.074, -0.068, 0.868, 0.613, -0.798, -0.464, 0.668, -0.227, 0.521, -0.973, -0.202, -0.213, -0.936, 0.901, -0.369, -0.912, -0.665, 0.597, -0.922, 0.077, 0.752, 0.012, 0.803, 0.065, -0.144, -0.202, -0.211, -0.073, -0.715, 0.026, -0.707, 0.134, 0.692, 0.895, -0.859, 0.556, -0.424, -0.068, 0.462, -0.408, -0.724, -0.653, 0.878, 0.426, 0.558, -0.646, 0.193, -0.804, -0.224, 0.85, -0.315, 0.67, -0.383, 0.35, 0.878, 0.854, -0.835, -0.718, -0.668, -0.802, -0.424, 0.705, -0.382, 0.133, -0.357, -0.073, -0.09, 0.97, 0.056, 0.945, 0.948, 0.328, -0.755, 0.375, 0.009, -0.899, -0.825, -0.286, -0.762, 0.425, 0.125, 0.803, 0.151, -0.38, 0.278, 0.97, -0.559, -0.285, -0.792, -0.284, 0.37, 0.793, -0.145, -0.686, 0.001, 0.433, -0.676, -0.193, -0.472, 0.19, -0.822, 0.671, -0.032, -0.69, 0.228, -0.364, -0.09, 0.795, 0.666, -0.873, 0.736, -0.686, 0.982, 0.154, 0.106, 0.578, -0.821, -0.954, 0.441, -0.63, 0.975, 0.501, 0.877, -0.636, -0.524, -0.274, 0.984, -0.273, -0.883, -0.725, 0.835, 0.314, 0.947, 0.81, -0.599, -0.186, 0.835, -0.122, 0.966, 0.276, -0.61, -0.755, -0.121, 0.454, -0.517, 0.28, -0.38, -0.822, 0.129, -0.427, -0.679, -0.219, -0.405, -0.796, -0.167, -0.914, -0.729, 0.102, 0.779, 0.734, 0.692, -0.966, -0.609, 0.839, 0.324, 0.992, -0.949, 0.387, -0.993, 0.624, 0.274, 0.328, 0.44, 0.972, -0.155, -0.676, 0.711, -0.072, 0.083, -0.329, 0.718, 0.833, -0.388, -0.606, 0.07, -0.79, 0.016, -0.091, 0.533, 0.954, 0.057, 0.426, -0.661, 0.245, 0.826, -0.931, 0.69, -0.316, -0.51, -0.269, 0.944, 0.856], [0.873, -0.408, 0.237, -0.822, -0.556, 0.865, -0.788, -0.308, 0.53, 0.588, -0.711, 0.97, -0.352, -0.607, -0.763, 0.524, 0.209, 0.152, 0.095, 0.556, -0.542, 0.278, 0.293, 0.37, 0.653, -0.546, -0.885, -0.718, 0.202, -0.957, 0.522, -0.074, -0.78, -0.174, 0.474, 0.287, 0.237, 0.208, 0.694, -0.639, -0.022, -0.031, -0.911, 0.565, -0.029, -0.433, 0.406, -0.617, -0.855, -0.355, -0.493, 0.803, 0.259, -0.059, 0.385, -0.045, -0.382, 0.062, 0.71, -0.509, 0.511, -0.497, -0.047, 0.366, -0.586, 0.404, -0.98, 0.376, 0.358, 0.418, 0.851, 0.165, 0.506, -0.355, -0.312, 0.755, 0.941, 0.955, 0.345, 0.172, -0.358, -0.218, 0.374, -0.959, -0.449, -0.672, 0.629, 0.893, 0.936, -0.466, -0.228, 0.351, 0.583, -0.444, -0.224, 0.053, -0.043, 0.922, 0.786, 0.436, 0.283, -0.828, -0.098, -0.028, 0.085, -0.398, -0.003, -0.958, 0.287, 0.763, 0.031, 0.001, 0.678, -0.667, 0.969, -0.351, -0.026, 0.229, 0.028, 0.239, 0.546, 0.075, 0.154, -0.807, 0.489, -0.946, -0.683, 0.366, 0.05, 0.419, 0.65, -0.985, -0.96, 0.283, 0.205, -0.485, -0.419, 0.911, 0.353, -0.245, 0.08, 0.874, -0.026, 0.434, -0.011, 0.136, 0.769, -0.883, 0.614, 0.34, -0.891, -0.213, -0.808, 0.639, 0.211, 0.459, -0.111, -0.234, -0.608, -0.411, -0.482, -0.875, -0.149, -0.385, 0.708, -0.022, 0.243, 0.226, 0.504, 0.993, 0.251, -0.502, 0.846, 0.352, 0.776, 0.815, 0.313, 0.408, -0.309, 0.505, -0.293, 0.897, 0.138, 0.996, 0.204, -0.803, 0.801, -0.199, 0.321, -0.149, 0.063, -0.015, 0.057, -0.501, -0.619, -0.745, -0.934, 0.05, 0.902, 0.029, -0.219, 0.876, 0.328, 0.291, -0.663, 0.306, -0.759, -0.476, 0.901, -0.893, -0.826, 0.427, 0.159, 0.718, -0.356, -0.272, -0.095, -0.572, 0.432, -0.385, -0.34, -0.479, -0.745, -0.81, -0.303, 0.959, -0.785, -0.734, 0.333, -0.21, -0.37, -0.789, 0.389, 0.226, 0.525, 0.912, -0.384, -0.565, 0.223, 0.436, 0.798, -0.459, 0.998, 0.112, 0.663, -0.81, 0.868, 0.159, 0.117, -0.403, 0.124, 0.039, -0.993, 0.637, -0.528, 0.865, -0.632, -0.265, 0.357, -0.313, -0.165, 0.057, 0.857, -0.402, 0.449, 0.047, 0.741, -0.173, 0.249, 0.951, -0.331, -0.87, 0.552, 0.034, 0.296, 0.03, 0.192, 0.755, 0.99, 0.745, -0.38, -0.378, -0.765, 0.698, -0.896, -0.561, -0.201, 0.676, -0.533, 0.104, 0.027, -0.621, -0.749, 0.672, 0.856, -0.374, -0.592, -0.093, 0.451, 0.719, -0.643, 0.145, 0.569, -0.487, 0.75, -0.135, 0.849, 0.874, -0.814, -0.623, -0.714, 0.023, 0.881, 0.813, -0.69, 0.94, 0.257, 0.911, -0.192, 0.072, -0.647, -0.188, 0.417, -0.465, 0.128, -0.175, 0.23, -0.013, 0.977, -0.568, -0.265, -0.609, 0.186, 0.833, 0.228, -0.859, -0.259, 0.527, 0.355, 0.44, -0.716, 0.629, -0.886, 0.174, 0.523, -0.756, 0.642, -0.908, -0.281, -0.984, 0.892, -0.888, 0.756, -0.269, 0.074, -0.427, -0.86, -0.019, 0.309, -0.59, 0.532, -0.171, -0.247, -0.34, 0.264, -0.588, 0.529, -0.208, -0.924, 0.398, 0.252, 0.091, -0.485, 0.229, -0.425, -0.517, 0.006, -0.792, 0.019, 0.222, 0.494, 0.976, -0.082, 0.62, -0.062, -0.006, -0.312, 0.576, -0.736, -0.624, -0.08, -0.127, -0.566, 0.426, -0.565, -0.502, -0.666, 0.801, -0.434, -0.212, 0.469, -0.517, 0.804, -0.559, -0.005, -0.876, -0.373, 0.784, 0.357, 0.768, 0.248, 0.918, 0.859, 0.095, 0.471, 0.259, 0.678, -0.01, 0.211, -0.236, 0.649, 0.101, 0.439, 0.635, -0.475, -0.877, -0.548, -0.933, -0.722, -0.345, -0.145, -0.451, -0.164, 0.164, 0.126, 0.319, 0.311, -0.746, -0.893, -0.217, 0.94, 0.903, -0.873, -0.589, -0.083, -0.078, -0.62, -0.422, 0.643, -0.755, 0.891, -0.158, -0.857, -0.678, -0.603, 0.546, 0.527, -0.427, -0.107, 0.144, 0.338, 0.85, 0.949, 0.389, 0.388, -0.783, -0.863, -0.748, 0.967, 0.204, 0.975, -0.41, -0.213, -0.843, -0.571, 0.164, -0.544, 0.793, -0.194, -0.9, 0.188, 0.223, 0.943, 0.677, -0.968, 0.179, -0.103, -0.251, -0.021, 0.532, -0.272, 0.967, -0.891, 0.553, -0.208, -0.357, 0.61, 0.143, 0.156, 0.775, 0.752, 0.045, 0.794, -0.532, 0.251, -0.87, -0.334, -0.85, -0.042, 0.321, -0.439, 0.176, -0.289, 0.006, 0.165, -0.885, 0.184, 0.509, -0.725, 0.541, -0.903, -0.05, -0.398, -0.973, 0.483, 0.155, 0.241, 0.159, 0.957, 0.99, -0.599, 0.864, 0.25, 0.36, 0.764, -0.004, -0.371, 0.489, 0.359, 0.677, 0.388, -0.069, -0.786, -0.878, -0.814, -0.398, 0.019, -0.863, 0.436, -0.328, 0.29, 0.172, -0.488, 0.28, 0.577, 0.169, -0.126, -0.473, -0.821, 0.93, 0.8, 0.363, 0.145, 0.515, 0.703, 0.971, -0.962, -0.605, 0.635, -0.834, 0.154, -0.502, 0.425, -0.843, -0.622, -0.232, 0.78, 0.72, 0.976, 0.321, -0.965, 0.318, -0.654, 0.777, -0.786, 0.218, 0.358, -0.43, -0.028, -0.848, -0.112, -0.349, 0.055, 0.016, -0.636, 0.097, -0.073, 0.772, -0.24, -0.2, 0.226, -0.703, -0.465, 0.879, 0.768, -0.136, 0.45, -0.563, -0.886, 0.073, 0.793, 0.109, 0.084, -0.598, 0.632, 0.955, -0.386, 0.991, 0.67, -0.788, -0.659, -0.792, 0.226, 0.453, -0.557], [-0.768, -0.495, -0.886, -0.626, 0.473, 0.06, 0.106, -0.764, 0.351, -0.414, 0.426, 0.354, 0.162, 0.173, 0.69, -0.416, 0.676, 0.413, 0.774, 0.433, 0.336, 0.899, -0.4, 0.241, -0.483, -0.003, 0.517, 0.02, 0.781, -0.905, 0.969, 0.235, -0.633, 0.087, 0.958, -0.649, 0.749, -0.413, 0.412, 0.811, -0.881, 0.869, -0.737, 0.34, -0.99, -0.511, 0.818, 0.126, 0.189, -0.838, -0.231, -0.342, -0.61, 0.626, 0.182, 0.91, -0.923, -0.708, 0.25, -0.451, 0.388, -0.057, 0.984, -0.095, 0.642, -0.707, 0.648, -0.168, 0.881, 0.016, 0.665, 0.057, 0.772, -0.691, 0.604, -0.365, 0.598, -0.108, 0.809, 0.653, -0.196, 0.699, -0.05, -0.982, 0.522, 0.709, -0.295, -0.221, 0.266, -0.002, 0.547, -0.581, -0.476, -0.363, 0.76, 0.007, 0.159, 0.491, -0.93, -0.563, 0.759, -0.6, 0.109, -0.192, -0.328, 0.714, 0.264, 0.109, 0.056, -0.796, -0.471, -0.363, -0.266, 0.782, -0.098, -0.004, 0.188, 0.594, 0.283, 0.212, -0.199, -0.898, -0.024, -0.162, 0.284, -0.747, 0.572, 0.134, 0.531, -0.266, -0.951, 0.265, 0.083, 0.337, -0.147, 0.424, -0.294, 0.516, 0.106, -0.423, 0.543, 0.918, -0.232, 0.796, -0.185, -0.473, -0.224, 0.477, 0.781, 0.083, 0.558, 0.418, -0.507, -0.66, 0.743, -0.244, 0.035, 0.949, -0.573, -0.543, -0.453, -0.102, 0.755, 0.702, -0.669, -0.458, -0.671, -0.272, 0.302, 0.358, -0.685, 0.572, 0.081, -0.457, 0.95, -0.523, -0.785, 0.359, -0.529, 0.304, 0.345, 0.045, -0.03, -0.525, -0.472, -0.717, 0.24, 0.566, 0.515, 0.862, -0.218, -0.851, 0.071, 0.96, -0.225, -0.495, 0.054, -0.636, 0.35, -0.823, -0.567, 0.353, -0.281, 0.671, -0.462, 0.853, 0.197, -0.137, -0.838, -0.177, 0.786, -0.269, 0.784, 0.606, 0.246, 0.975, -0.371, -0.729, 0.514, -0.094, 0.987, -0.978, 0.562, 0.104, 0.891, -0.811, 0.089, 0.29, -0.72, 0.226, -0.72, -0.401, -0.683, 0.631, -0.792, 0.924, -0.198, -0.07, -0.841, 0.826, 0.257, -0.756, -0.887, 0.217, 0.667, 0.861, -0.331, 0.408, -0.488, 0.315, 0.925, -0.832, -0.07, -0.338, 0.9, -0.168, 0.119, -0.263, -0.538, 0.882, 0.32, 0.813, -0.499, -0.621, -0.794, -0.21, 0.997, -0.445, 0.769, 0.712, -0.752, 0.972, -0.042, -0.898, -0.32, -0.777, -0.604, 0.923, 0.756, 0.072, -0.981, 0.062, 0.507, -0.611, 0.831, 0.313, -0.82, 0.258, 0.891, 0.233, -0.951, 0.957, -0.165, -0.625, 0.133, 0.508, -0.45, 0.873, -0.565, -0.507, 0.653, -0.873, -0.089, 0.11, 0.608, 0.207, -0.93, -0.905, 0.676, 0.053, 0.011, -0.498, 0.361, 0.453, -0.303, -0.535, -0.451, 0.925, 0.794, 0.404, 0.663, 0.132, 0.664, -0.996, 0.95, 0.402, 0.928, -0.115, 0.586, 0.252, 0.097, -0.515, 0.13, 0.311, -0.128, 0.516, 0.261, 0.51, 0.744, -0.665, -0.872, 0.281, 0.099, -0.689, 0.103, 0.929, 0.791, -0.258, 0.842, 0.856, 0.04, -0.728, 0.241, 0.229, -0.104, -0.241, -0.278, 0.406, -0.943, 0.449, -0.753, -0.846, -0.743, -0.793, 0.371, -0.218, 0.002, 0.244, -0.748, -0.215, 0.968, -0.407, 0.01, -0.854, 0.787, 0.604, 0.221, -0.873, 0.943, 0.647, -0.465, -0.644, -0.018, 0.699, 0.512, 0.427, 0.104, 0.794, -0.264, -0.479, -0.553, 0.561, 0.024, 0.28, 0.158, -0.589, -0.252, 0.112, -0.715, 0.481, -0.888, -0.07, -0.398, -0.306, -0.647, 0.537, 0.128, -0.041, -0.719, -0.668, -0.529, -0.38, 0.925, -0.223, -0.972, 0.227, -0.989, 0.674, 0.173, 0.867, -0.697, -0.219, -0.843, -0.676, 0.748, -0.068, 0.102, -0.271, -0.139, 0.528, 0.545, -0.602, 0.319, -0.104, 0.711, -0.833, 0.827, -0.374, 0.641, -0.608, 0.443, 0.819, -0.719, -0.973, 0.847, 0.157, -0.335, -0.373, 0.07, 0.435, -0.555, 0.859, 0.22, -0.615, 0.626, -0.472, 0.375, -0.127, 0.509, -0.491, 0.366, -0.101, -0.512, 0.176, -0.091, 0.343, 0.073, 0.391, -0.082, -0.143, 0.617, 0.503, 0.886, -0.255, 0.494, -0.408, 0.494, -0.55, -0.644, -0.212, 0.243, 0.224, 0.678, -0.159, -0.2, -0.016, 0.664, 0.717, -0.991, -0.149, 0.125, 0.805, -0.112, -0.713, -0.211, -0.076, -0.217, 0.992, 0.207, -0.539, -0.216, -0.341, 0.128, -0.804, 0.672, 0.107, -0.619, -0.657, 0.436, -0.065, -0.822, 0.281, -0.642, 0.246, 0.733, -0.607, 0.47, -0.958, -0.654, 0.072, 0.53, -0.169, -0.147, 0.508, 0.582, 0.421, -0.97, 0.021, 0.89, 0.397, 0.295, 0.672, -0.878, -0.08, 0.103, 0.822, 0.08, -0.944, -0.498, 0.828, 0.191, -0.139, 0.237, -0.278, 0.351, 0.705, -0.706, -0.7, -0.381, -0.113, 0.798, -0.745, 0.001, -0.617, -0.999, 0.753, -0.72, 0.119, -0.326, 0.944, 0.283, 0.789, 0.675, 0.02, 0.183, -0.788, -0.84, -0.271, 0.172, 0.302, -0.206, 0.184, -0.016, -0.957, -0.272, 0.75, -0.003, 0.673, 0.249, -0.272, 0.488, 0.378, 0.371, -0.305, -0.817, -0.724, 0.915, 0.626, 0.644, -0.455, 0.524, -0.075, 0.03, 0.617, -0.255, -0.565, 0.914, -0.445, -0.595, 0.981, -0.155, 0.774, -0.58, -0.143, -0.63, -0.344, 0.321, -0.714, -0.157, 0.401, 0.45, 0.595, -0.037, 0.032, -0.25, -0.457, -0.005, 0.391, 0.24, -0.856, -0.227, 0.938, -0.724, 0.781, -0.752], [0.979, -0.284, 0.411, 0.151, 0.529, -0.134, 0.972, -0.558, -0.251, 0.093, 0.752, -0.148, -0.017, 0.199, -0.324, 0.55, -0.85, 0.678, -0.953, 0.643, 0.74, 0.67, -0.333, -0.349, -0.107, 0.392, -0.011, -0.887, -0.349, 0.019, -0.354, -0.236, 0.136, -0.722, -0.591, -0.817, -0.783, 0.599, 0.123, -0.202, -0.073, 0.603, -0.779, -0.963, 0.58, 0.643, 0.366, -0.482, 0.842, 0.711, 0.212, 0.903, -0.923, 0.214, -0.506, -0.118, 0.544, -0.548, -0.747, -0.728, -0.654, 0.289, -0.825, 0.442, 0.309, 0.074, 0.652, 0.378, -0.241, 0.166, 0.349, 0.556, 0.424, 0.772, -0.154, -0.374, 0.461, -0.962, 0.233, -0.148, 0.158, 0.651, 0.746, 0.599, 0.455, 0.461, -0.735, 0.492, -0.909, -0.221, -0.224, -0.772, -0.93, 0.476, 0.129, 0.406, -0.523, 0.81, 0.86, -0.942, -0.441, 0.606, 0.445, 0.872, -0.605, 0.338, -0.664, -0.635, 0.3, -0.737, 0.734, 0.469, 0.654, 0.658, 0.724, 0.053, 0.525, -0.816, -0.04, -0.623, 0.765, -0.683, -0.861, 0.859, -0.81, 0.902, 0.853, 0.989, -0.105, -0.337, 0.339, 0.756, -0.894, -0.691, 0.134, 0.205, -0.247, 0.491, -0.926, 0.834, 0.045, -0.534, -0.079, 0.502, -0.486, -0.904, -0.661, 0.548, -0.825, 0.858, -0.244, -0.022, 0.189, -0.943, 0.307, -0.744, 0.357, 0.214, 0.848, 0.696, -0.139, 0.886, -0.554, -0.563, 0.324, 0.664, -0.198, 0.15, -0.678, 0.249, -0.957, -0.612, 0.763, 0.305, -0.18, 0.942, -0.208, 0.209, 0.65, 0.376, -0.334, -0.412, -0.146, 0.74, -0.8, 0.2, 0.315, 0.139, 0.36, -0.04, 0.72, 0.023, -0.602, 0.923, 0.699, 0.149, -0.995, 0.963, -0.674, 0.23, 0.661, -0.601, 0.596, -0.234, -0.863, 0.404, -0.057, 0.795, 0.515, -0.659, -0.429, 0.225, -0.297, -0.945, -0.313, -0.705, -0.251, -0.027, 0.551, 0.663, -0.431, -0.735, -0.329, 0.119, -0.536, 0.956, -0.827, 0.406, -0.07, 0.473, -0.073, 0.298, 0.792, 0.146, 0.962, -0.684, 0.611, -0.159, 0.161, 0.196, 0.414, -0.663, -0.017, -0.441, 0.018, -0.575, 0.741, -0.67, 0.529, 0.352, 0.381, -0.446, 0.49, 0.111, 0.042, 0.121, 0.532, 0.101, 0.455, 0.468, 0.834, -0.929, 0.751, 0.853, -0.759, 0.311, -0.448, 0.897, -0.029, 0.473, 0.588, -0.907, -0.881, -0.202, 0.084, -0.45, 0.248, 0.103, 0.145, 0.437, -0.73, -0.368, 0.251, 0.424, -0.979, -0.781, 0.412, 0.407, 0.021, 0.058, 0.781, 0.492, 0.616, -0.432, -0.945, -0.452, -0.984, -0.723, -0.062, 0.867, -0.18, -0.238, -0.94, 0.028, -0.058, 0.275, 0.937, 0.777, 0.361, -0.658, 0.392, 0.961, 0.547, -0.551, -0.092, -0.647, 0.708, -0.976, 0.999, 0.78, 0.656, -0.956, -0.459, -0.154, 0.155, 0.701, -0.145, 0.395, 0.242, -0.359, 0.716, 0.268, 0.73, -0.047, -0.407, 0.49, 0.416, 0.801, -0.804, 0.93, -0.329, 0.126, -0.153, 0.741, -0.727, -0.988, -0.219, 0.471, -0.325, 0.491, -0.489, 0.098, -0.832, -0.65, -0.597, -0.711, 0.129, -0.286, -0.254, 0.358, 0.183, 0.82, 0.538, 0.196, -0.876, 0.576, -0.312, 0.791, -0.651, 0.823, 0.482, 0.953, 0.472, 0.402, -0.527, -0.173, -0.937, 0.374, -0.249, -0.266, -0.983, -0.245, -0.175, 0.461, -0.284, 0.537, 0.833, 0.729, 0.195, -0.37, 0.247, -0.976, -0.403, 0.027, 0.782, -0.755, -0.953, 0.59, 0.379, -0.164, -0.351, 0.645, 0.287, -0.524, 0.704, 0.724, 0.562, 0.575, 0.241, 0.176, -0.046, -0.838, -0.8, 0.772, -0.077, 0.596, -0.996, -0.016, -0.318, -0.371, 0.438, -0.634, 0.451, 0.462, 0.106, -0.42, -0.914, -0.261, 0.469, 0.707, 0.375, 0.921, 0.815, -0.169, -0.887, -0.881, 0.486, -0.499, -0.963, -0.191, 0.043, -0.332, 0.837, -0.171, -0.177, -0.272, -0.915, -0.743, -0.844, 0.083, -0.097, -0.579, -0.677, -0.744, -0.787, -0.096, 0.777, -0.131, 0.927, -0.73, 0.848, 0.883, -0.523, 0.688, -0.926, -0.438, 0.831, 0.703, -0.54, -0.03, -0.338, 0.871, 0.958, 0.374, -0.623, -0.802, 0.461, -0.859, 0.833, -0.139, -0.297, -0.738, 0.262, -0.323, -0.534, 0.601, 0.224, 0.237, 0.309, 0.864, -0.15, -0.189, -0.869, -0.326, -0.256, 0.925, 0.347, 0.317, 0.076, 0.38, -0.474, -0.34, 0.272, 0.411, -0.001, 0.157, -0.735, 0.444, 0.529, 0.227, 0.352, 0.412, 0.968, 0.884, 0.621, 0.652, 0.424, 0.342, 0.662, -0.58, -0.787, -0.008, -0.484, 0.584, 0.926, -0.378, -0.844, -0.225, -0.569, 0.292, 0.332, -0.562, 0.995, -0.562, -0.151, 0.648, -0.656, -0.796, -0.041, 0.774, -0.21, 0.99, -0.805, -0.502, -0.864, -0.455, 0.609, 0.251, 0.264, 0.897, 0.022, -0.602, -0.594, 0.488, -0.225, 0.672, 0.944, 0.274, -0.224, -0.58, 0.675, -0.718, 0.665, 0.383, -0.74, 0.948, -0.62, 0.075, 0.183, 0.795, -0.728, 0.065, 0.839, 0.827, -0.351, 0.662, -0.829, 0.717, -0.6, -0.689, 0.946, -0.923, 0.163, -0.903, -0.374, 0.141, 0.988, -0.372, -0.713, 0.49, 0.712, 0.239, 0.21, 0.037, 0.032, 0.603, 0.484, 0.671, 0.777, 0.536, 0.677, 0.601, 0.907, 0.896, -0.233, -0.096, 0.292, -0.944, -0.277, 0.126, -0.826, -0.522, -0.088, 0.149, 0.572, 0.475, 0.191, -0.735, 0.54, 0.028, -0.5, 0.668, 0.969, 0.819, 0.978], [0.456, 0.073, 0.191, -0.235, 0.97, 0.983, 0.904, 0.117, -0.283, 0.703, 0.721, -0.965, 0.47, -0.031, -0.197, -0.435, 0.453, -0.436, -0.743, -0.87, 0.74, 0.055, -0.282, 0.163, -0.478, 0.612, -0.508, 0.063, -0.796, 0.368, -0.456, 0.856, -0.232, -0.577, -0.099, 0.284, -0.973, -0.965, -0.526, 0.079, 0.409, 0.421, 0.982, -0.977, -0.545, -0.851, 0.344, 0.764, 0.437, 0.108, -0.176, -0.451, -0.527, -0.776, -0.845, 0.741, -0.06, -0.678, -0.393, 0.196, 0.676, 0.495, -0.12, -0.025, 0.235, 0.456, 0.867, 0.45, -0.361, -0.683, 0.359, -0.442, -0.688, -0.863, 0.824, -0.955, 0.117, 0.441, -0.209, 0.127, 0.337, -0.102, -0.541, 0.466, -0.651, -0.551, 0.732, 0.113, 0.321, 0.635, -0.029, 0.522, -0.273, -0.049, 0.443, 0.43, 0.783, 0.739, -0.068, -0.808, -0.631, -0.959, 0.928, -0.007, 0.492, -0.091, 0.865, -0.435, 0.93, 0.936, 0.811, -0.3, -0.234, 0.675, -0.24, 0.849, -0.709, -0.734, -0.133, 0.366, 0.881, -0.518, -0.6, 0.818, -0.508, 0.943, 0.087, -0.659, 0.999, 0.021, -0.643, 0.24, 0.272, 0.726, 0.443, -0.562, 0.927, -0.096, 0.941, 0.408, 0.516, 0.698, -0.9, -0.254, -0.273, 0.695, -0.432, -0.793, -0.537, -0.441, -0.14, -0.535, -0.766, -0.765, 0.467, -0.374, 0.951, 0.378, -0.9, -0.529, -0.468, -0.759, 0.868, -0.413, -0.927, -0.797, 0.296, 0.098, 0.506, 0.343, 0.368, 0.588, -0.651, 0.552, 0.534, 0.794, 0.346, 0.007, -0.207, 0.562, 0.018, 0.719, -0.844, 0.254, 0.243, 0.922, -0.955, -0.661, 0.971, -0.423, -0.91, -0.212, -0.1, 0.158, 0.566, -0.177, -0.601, 0.166, 0.127, -0.376, 0.516, -0.257, -0.574, 0.366, 0.771, 0.868, -0.175, 0.289, 0.915, 0.204, 0.961, 0.976, 0.487, -0.83, -0.989, -0.266, -0.769, -0.277, 0.565, 0.867, 0.675, -0.728, -0.827, -0.935, 0.242, -0.533, 0.039, 0.803, 0.891, -0.876, -0.964, -0.7, 0.589, 0.876, 0.326, -0.373, -0.045, 0.257, -0.438, -0.517, -0.095, -0.114, -0.74, -0.989, -0.855, -0.224, 0.3, 0.736, 0.761, 0.392, 0.28, 0.527, -0.809, 0.569, 0.692, 0.2, 0.565, -0.295, -0.055, -0.105, -0.918, 0.896, -0.866, -0.201, 0.648, -0.09, -0.942, -0.139, 0.128, -0.279, 0.474, -0.768, -0.048, -0.374, -0.496, -0.87, 0.326, 0.397, -0.263, -0.839, -0.591, 0.769, 0.952, 0.531, -0.024, 0.425, 0.659, 0.963, -0.26, -0.439, -0.725, -0.397, -0.592, -0.031, -0.579, 0.25, -0.854, -0.009, 0.74, -0.253, -0.049, -0.951, 0.117, -0.393, 0.062, 0.227, 0.247, 0.085, -0.378, 0.738, 0.782, -0.347, 0.543, -0.707, -0.743, -0.66, -0.19, -0.355, -0.833, 0.097, 0.307, -0.506, -0.48, -0.059, -0.356, -0.538, -0.61, -0.933, -0.195, 0.501, -0.032, -0.656, -0.527, -0.672, 0.144, -0.625, 0.372, 0.789, -0.793, -0.124, 0.787, 0.525, 0.708, -0.862, 0.661, 0.549, -0.782, -0.583, 0.94, -0.468, -0.064, 0.56, -0.813, -0.062, -0.029, 0.319, -0.11, 0.007, -0.26, -0.4, 0.289, 0.558, 0.022, -0.608, 0.409, -0.058, -0.866, 0.108, -0.167, 0.061, 0.571, -0.09, 0.215, -0.472, -0.947, -0.279, -0.74, -0.442, -0.999, -0.683, -0.834, 0.221, 0.676, -0.66, 0.682, 0.119, -0.995, 0.789, 0.344, -0.575, 0.84, 0.729, 0.051, -0.033, -0.904, -0.218, 0.458, -0.216, 0.916, -0.756, -0.259, 0.448, 0.142, 0.26, 0.653, -0.001, 0.468, -0.647, 0.945, 0.868, -0.885, 0.992, 0.599, -0.502, 0.266, -0.751, -0.068, 0.605, 0.657, 0.931, 0.532, -0.089, 0.597, 0.566, 0.573, -0.621, 0.355, 0.778, -0.292, -0.384, 0.108, -0.384, -0.245, -0.914, 0.166, -0.485, -0.133, -0.858, 0.508, 0.028, 0.197, -0.977, 0.947, 0.838, 0.224, 0.302, -0.697, -0.224, -0.386, 0.837, -0.927, 0.102, 0.167, 0.3, -0.148, 0.931, 0.743, -0.012, 0.966, -0.449, 0.003, -0.473, -0.644, 0.406, -0.29, -0.889, -0.497, -0.772, -0.94, 0.916, 0.686, -0.441, -0.071, -0.882, 0.895, -0.998, 0.615, 0.628, -0.265, 0.777, -0.312, 0.004, -0.906, 0.015, 0.737, 0.964, 0.035, 0.08, 0.651, -0.497, 0.307, -0.209, -0.428, -0.483, 0.44, 0.586, 0.248, 0.222, -0.354, -0.549, 0.125, -0.954, -0.374, -0.205, 0.974, 0.232, -0.486, 0.105, -0.748, -0.964, -0.089, 0.222, -0.527, -0.983, 0.135, -0.108, -0.347, 0.892, -0.771, -0.297, 0.459, 0.24, 0.536, 0.958, -0.577, -0.875, -0.866, -0.802, -0.812, -0.613, -0.853, -0.109, -0.352, -0.344, -0.921, -0.314, 0.333, -0.216, -0.795, 0.355, 0.192, 0.911, 0.549, 0.319, 0.681, 0.158, 0.007, -0.258, 0.376, -0.831, 0.441, -0.629, -0.77, -0.757, 0.038, 0.133, 0.166, -0.689, -0.268, 0.413, -0.261, 0.337, 0.597, 0.509, -0.887, 0.056, 0.586, 0.894, 0.649, -0.134, -0.9, -0.338, -0.909, 0.105, 0.666, -0.1, 0.45, 0.285, 0.572, -0.209, -0.838, -0.05, 0.687, -0.755, 0.305, 0.092, 0.927, 0.096, -0.991, 0.867, 0.016, -0.275, -0.605, -0.819, -0.512, -0.14, -0.941, -0.633, -0.458, -0.014, 0.527, -0.286, 0.92, -0.11, 0.437, -0.302, -0.78, 0.899, 0.09, 0.27, 0.087, -0.698, 0.927, -0.667, -0.393, 0.217, 0.085, -0.628, -0.259, -0.551, 0.442, 0.896, 0.567, 0.058, -0.811], [-0.954, -0.98, 0.571, -0.427, -0.311, -0.977, -0.226, -0.513, 0.686, -0.023, -0.444, 0.112, -0.296, 0.997, -0.789, 0.505, 0.505, 0.837, 0.051, 0.477, -0.666, -0.091, 0.145, -0.355, 0.657, -0.088, 0.932, 0.302, -0.113, 0.226, -0.263, -0.936, -0.33, 0.931, 0.279, 0.512, 0.904, 0.844, -0.613, 0.639, -0.955, 0.282, 0.634, 0.246, 0.448, 0.709, -0.172, -0.099, 0.619, -0.1, -0.199, -0.228, 0.944, 0.126, 0.346, 0.384, 0.118, -0.315, -0.748, 0.306, -0.063, -0.334, 0.19, -0.704, -0.628, 0.138, 0.974, 0.68, -0.959, -0.361, -0.251, 0.967, 0.032, -0.629, 0.954, -0.027, 0.167, -0.261, 0.865, 0.966, -0.138, -0.285, 0.852, 0.759, 0.324, 0.565, -0.461, 0.577, 0.186, 0.627, -0.823, 0.752, 0.263, 0.645, 0.877, 0.511, 0.61, 0.158, 0.911, -0.929, 0.197, 0.976, 0.277, 0.127, 0.355, -0.283, 0.74, -0.71, 0.86, 0.654, -0.497, 0.733, 0.335, 0.367, 0.584, -0.237, 0.554, 0.158, -0.138, -0.334, 0.164, -0.293, 0.82, 0.184, -0.212, 0.714, 0.106, 0.059, 0.041, -0.983, -0.731, -0.884, 0.559, 0.111, -0.808, 0.967, 0.654, -0.512, -0.876, -0.945, 0.986, -0.93, -0.057, -0.296, 0.535, -0.722, -0.596, -0.701, -0.712, 0.566, -0.772, 0.992, 0.933, 0.762, -0.645, 0.617, 0.691, 0.913, 0.905, -0.243, 0.949, -0.632, -0.623, 0.73, 0.249, 0.776, -0.346, 0.458, -0.801, -0.365, 0.068, -0.784, 0.32, -0.163, 0.617, -0.871, -0.703, 0.567, 0.389, 0.162, -0.027, 0.29, 0.388, 0.446, 0.836, 0.024, 0.851, 0.941, 0.275, 0.148, 0.324, 0.02, -0.432, 0.657, -0.045, -0.624, -0.55, 0.99, 0.733, -0.546, -0.582, 0.817, -0.083, 0.939, -0.598, 0.314, -0.18, -0.218, 0.205, 0.317, -0.561, 0.744, 0.081, -0.332, 0.909, -0.261, -0.596, 0.166, -0.488, -0.008, -0.253, 0.086, -0.697, -0.673, 0.442, -0.139, 0.186, 0.39, 0.818, 0.208, -0.213, 0.309, -0.594, -0.648, 0.545, 0.264, 0.178, -0.561, 0.136, -0.445, 0.057, 0.138, 0.513, 0.226, 0.018, 0.625, -0.855, 0.353, -0.189, 0.342, -0.397, -0.373, -0.024, 0.102, 0.117, 0.162, 0.314, 0.067, -0.484, 0.91, 0.914, -0.06, -0.995, 0.913, 0.626, 0.877, -0.88, -0.661, 0.521, -0.35, 0.117, -0.82, 0.561, -0.983, 0.804, 0.031, -0.464, -0.094, -0.523, -0.618, 0.579, 0.182, 0.608, -0.007, -0.637, -0.233, 0.326, 0.849, 0.684, -0.494, 0.727, 0.156, -0.733, 0.109, -0.05, 0.404, 0.07, -0.363, -0.637, 0.366, 0.415, -0.9, -0.673, -0.615, -0.018, -0.372, -0.194, 0.669, 0.068, 0.919, 0.709, -0.444, 0.284, 0.222, -0.305, 0.909, -0.19, 0.269, 0.894, -0.917, -0.755, 0.649, -0.111, 0.135, -0.529, 0.548, -0.97, -0.867, -0.122, 0.455, 0.723, 0.039, 0.633, 0.762, 0.637, 0.143, -0.683, 0.515, -0.206, -0.463, 0.325, 0.703, -0.906, 0.727, -0.346, -0.905, 0.872, 0.96, -0.877, -0.364, 0.271, -0.409, 0.174, -0.746, 0.139, 0.657, 0.231, 0.464, -0.058, 0.095, 0.559, 0.504, 0.552, -0.833, -0.672, -0.85, 0.439, -0.278, -0.684, 0.213, -0.249, 0.148, -0.264, 0.638, -0.724, -0.334, 0.014, -0.195, 0.538, 0.515, -0.611, 0.298, -0.88, -0.433, 0.678, -0.598, 0.69, -0.81, -0.164, 0.699, 0.254, 0.341, 0.678, -0.92, 0.202, -0.762, -0.474, 0.692, -0.694, 0.261, -0.722, 0.952, 0.146, 0.195, -0.145, -0.488, -0.997, -0.538, 0.36, 0.982, -0.257, 0.781, -0.018, 0.887, 0.733, -0.892, -0.805, -0.274, 0.48, -0.652, 0.77, -0.004, -0.741, -0.799, 0.042, 0.121, -0.815, 0.03, -0.293, -0.768, 0.256, -0.492, -0.098, -0.116, -0.621, -0.768, -0.592, -0.829, -0.732, 0.63, 0.569, 0.934, -0.07, 0.385, -0.488, 0.826, -0.812, 0.46, -0.869, 0.661, -0.095, -0.333, 0.602, -0.544, 0.19, 0.901, 0.13, -0.943, -0.856, -0.883, 0.178, 0.809, 0.552, -0.801, 0.477, -0.706, -0.307, -0.546, 0.624, 0.434, -0.481, 0.188, 0.563, 0.807, -0.867, 0.074, -0.385, -0.839, 0.15, 0.624, 0.946, -0.672, -0.545, -0.163, 0.192, 0.934, 0.106, 0.61, 0.691, -0.716, -0.179, 0.692, -0.853, -0.643, 0.356, 0.753, -0.586, -0.646, 0.534, 0.635, -0.373, 0.304, -0.26, -0.964, 0.821, 0.866, -0.032, -0.99, 0.18, 0.543, 0.661, -0.286, -0.266, 0.232, -0.9, -0.279, 0.972, 0.267, 0.709, -0.058, -0.975, -0.521, -0.837, 0.006, -0.411, 0.794, 0.324, 0.507, -0.972, 0.219, -0.198, 0.278, -0.679, -0.575, 0.602, 0.664, -0.45, 0.533, 0.161, -0.062, -0.1, -0.854, 0.685, -0.702, 0.187, 0.183, -0.005, -0.652, -0.876, -0.455, 0.377, 0.329, -0.757, -0.936, 0.25, -0.203, 0.888, -0.91, 0.852, -0.172, 0.792, -0.754, 0.378, 0.419, -0.878, 0.65, -0.111, -0.843, 0.2, 0.7, 0.408, -0.193, -0.956, 0.486, -0.877, 0.187, 0.951, -0.472, 0.723, -0.955, 0.365, 0.516, 0.82, 0.91, -0.827, -0.933, -0.047, 0.237, -0.388, -0.599, -0.829, 0.404, -0.148, 0.962, 0.895, 0.162, 0.473, -0.718, 0.73, -0.879, 0.315, 0.252, -0.044, -0.911, -0.221, -0.246, 0.534, 0.907, 0.365, 0.824, 0.894, 0.444, 0.745, -0.165, 0.991, 0.677, 0.573, 0.9, 0.767, 0.573, -0.103, 0.028, -0.445, -0.459, -0.592], [-0.136, 0.388, 0.68, -0.829, 0.763, 0.062, 0.094, 0.498, -0.038, 0.072, -0.572, 0.097, 0.287, -0.484, -0.93, -0.477, 0.818, 0.142, -0.256, -0.286, 0.182, 0.599, 0.422, -0.406, -0.569, 0.541, 0.919, -0.524, 0.673, 0.737, -0.404, 0.435, -0.468, 0.294, -0.822, 0.016, 0.9, -0.428, -0.869, -0.755, 0.331, 0.122, 0.672, -0.974, 0.086, -0.094, -0.988, -0.697, -0.016, 0.567, 0.908, 0.857, 0.801, 0.661, 0.765, -0.553, -0.474, -0.36, -0.976, -0.519, 0.214, -0.882, 0.114, 0.081, 0.463, 0.542, -0.429, -0.381, 0.317, 0.792, 0.274, 0.537, 0.515, -0.072, -0.859, 0.516, 0.671, 0.619, 0.899, -0.069, 0.371, 0.692, 0.226, 0.819, -0.248, -0.017, 0.909, 0.224, -0.942, 0.864, -0.652, -0.091, -0.315, -0.627, 0.516, -0.737, -0.031, 0.904, 0.898, 0.748, 0.615, -0.82, 0.338, 0.735, -0.57, 0.271, 0.687, -0.467, -0.783, 0.944, -0.835, -0.656, -0.119, 0.424, -0.74, 0.781, -0.489, -0.349, 0.845, 0.242, 0.766, 0.111, 0.534, 0.484, 0.696, -0.812, 0.882, -0.302, 0.982, 0.451, 0.233, 0.24, -0.959, -0.204, -0.455, -0.959, -0.794, 0.228, 0.908, -0.82, 0.037, -0.053, -0.334, -0.74, -0.552, 0.774, 0.276, 0.714, 0.68, 0.139, -0.828, 0.144, -0.406, -0.729, 0.581, -0.29, -0.509, 0.916, -0.062, 0.966, -0.961, 0.892, 0.515, -0.908, -0.397, -0.266, -0.981, -0.399, 0.403, 0.585, -0.736, -0.184, -0.872, -0.213, 0.262, -0.49, -0.758, -0.858, 0.749, 0.357, 0.67, 0.032, 0.336, -0.826, 0.584, -0.454, -0.729, 0.771, -0.487, -0.383, -0.63, -0.063, -0.922, 0.168, -0.838, -0.14, 0.811, 0.023, 0.523, 0.98, -0.332, 0.719, 0.268, 0.993, 0.296, -0.214, 0.983, -0.468, -0.072, -0.944, 0.057, -0.955, -0.708, -0.945, -0.39, 0.967, -0.901, 0.791, -0.46, -0.683, -0.306, 0.221, 0.886, -0.215, -0.677, -0.884, 0.322, 0.139, 0.284, -0.774, -0.848, 0.617, 0.263, 0.452, 0.649, 0.849, 0.116, -0.17, -0.567, 0.642, -0.276, 0.304, 0.816, 0.967, -0.869, -0.765, 0.377, -0.178, 0.897, 0.006, 0.952, -0.166, 0.895, -0.599, 0.727, 0.144, -0.476, -0.011, -0.095, -0.116, -0.632, 0.846, 0.183, 0.434, -0.967, -0.852, -0.448, -0.564, 0.879, -0.947, 0.824, 0.686, 0.507, 0.619, -0.293, -0.016, 0.877, 0.122, 0.187, 0.562, 0.948, -0.268, 0.786, 0.16, -0.714, -0.911, -0.671, -0.862, -0.612, -0.171, 0.325, -0.393, 0.231, 0.611, -0.127, -0.914, -0.209, 0.064, -0.69, -0.392, 0.76, -0.443, 0.409, -0.443, -0.047, -0.856, 0.872, -0.964, -0.187, -0.501, -0.79, -0.553, -0.329, -0.562, 0.813, -0.276, 0.693, 0.394, 0.965, -0.672, 0.79, 0.798, 0.998, -0.746, 0.448, 0.781, -0.589, 0.26, -0.188, -0.677, 0.105, 0.882, -0.713, -0.033, -0.223, 0.126, -0.854, -0.257, 0.457, -0.954, -0.044, 0.326, -0.924, 0.84, 0.226, 0.977, -0.587, -0.176, 0.657, -0.62, 0.433, 0.925, 0.953, 0.433, 0.777, -0.735, 0.779, 0.913, -0.107, 0.325, -0.869, 0.59, 0.72, -0.294, 0.26, -0.882, 0.708, -0.127, -0.162, 0.195, 0.678, -0.99, -0.021, -0.373, 0.697, -0.662, -0.717, 0.252, 0.827, -0.167, 0.247, -0.185, -0.766, -0.269, 0.044, 0.557, 0.753, 0.442, -0.929, 0.713, -0.842, 0.2, 0.201, 0.588, -0.795, 0.342, 0.665, -0.269, 0.262, 0.815, -0.107, 0.775, 0.352, 0.193, -0.286, 0.56, -0.901, 0.443, 0.745, 0.811, -0.446, 0.73, -0.088, -0.758, 0.537, -0.024, -0.074, -0.697, -0.478, 0.632, -0.172, -0.439, 0.283, -0.88, 0.595, -0.975, -0.59, 0.509, -0.573, -0.729, -0.774, -0.687, -0.439, 0.762, 0.206, -0.344, 0.417, 0.8, -0.232, -0.717, -0.164, 0.589, 0.554, 0.798, -0.204, 0.47, 0.744, -0.888, 0.983, -0.773, 0.391, -0.661, 0.203, 0.202, 0.876, 0.646, 0.135, 0.245, -0.724, 0.73, 0.867, -0.261, 0.273, 0.114, -0.502, -0.999, -0.064, 0.39, -0.302, -0.816, -0.919, 0.203, -0.65, -0.395, 0.26, 0.692, 0.046, -0.517, 0.976, 0.156, -0.614, 0.102, 0.821, -0.001, -0.746, 0.596, 0.254, 0.524, 0.031, 0.712, 0.64, -0.527, -0.865, -0.25, -0.437, 0.606, -0.692, -0.926, 0.183, -0.536, 0.606, 0.708, 0.434, 0.637, -0.389, 0.766, -0.903, 0.49, 0.629, 0.681, -0.469, -0.144, -0.557, 0.782, 0.272, 0.332, -0.38, -0.056, -0.167, 0.143, 0.326, -0.525, -0.238, 0.702, -0.659, 0.745, -0.2, 0.008, -0.705, 0.137, 0.783, -0.209, -0.065, 0.876, 0.918, -0.086, -0.645, 0.774, -0.048, -0.818, 0.01, -0.897, -0.597, -0.603, -0.465, -0.657, -0.725, 0.886, 0.316, 0.98, -0.684, -0.226, 0.951, 0.966, 0.526, 0.732, 0.117, -0.709, -0.595, -0.021, -0.837, 0.589, -0.46, 0.221, -0.949, -0.655, -0.209, 0.601, -0.791, -0.863, -0.775, -0.918, 0.928, 0.649, 0.869, -0.105, 0.772, -0.238, -0.135, 0.496, 0.104, -0.63, 0.272, 0.472, -0.638, -0.126, -0.601, 0.829, 0.111, 0.467, 0.395, 0.222, -0.958, 0.762, 0.844, -0.14, 0.219, 0.332, -0.35, -0.736, 0.502, 0.495, -0.738, 0.914, -0.7, 0.144, 0.844, 0.274, -0.004, 0.61, -0.404, -0.241, 0.679, 0.583, 0.033, 0.622, -0.085, -0.451, -0.677, 0.576, 0.46, -0.785, 0.953, -0.666, -0.725], [0.61, -0.668, -0.733, -0.015, 0.021, -0.296, 0.736, 0.349, -0.663, 0.309, -0.813, 0.056, -0.96, -0.615, -0.378, 0.319, 0.581, 0.626, -0.313, 0.423, -0.208, -0.416, 0.387, 0.467, 0.419, -0.596, -0.954, -0.811, -0.283, 0.738, -0.77, -0.732, 0.697, 0.159, 0.558, 0.504, -0.467, 0.329, -0.712, -0.71, -0.327, 0.238, -0.324, -0.438, -0.905, 0.548, 0.401, -0.206, -0.382, -0.958, 0.629, 0.616, -0.872, 0.292, 0.442, 0.035, 0.114, 0.129, -0.897, 0.307, 0.498, 0.948, 0.555, 0.47, -0.828, -0.206, -0.553, -0.758, -0.899, -0.632, 0.452, 0.206, -0.685, 0.048, 0.814, 0.171, 0.825, -0.984, 0.919, -0.167, -0.165, -0.958, 0.58, -0.048, -0.016, 0.848, -0.034, -0.071, 0.983, 0.993, 0.513, -0.188, 0.345, 0.823, 0.815, -0.39, 0.861, -0.889, -0.661, 0.98, 0.353, 0.86, -0.597, 0.061, 0.492, 0.168, -0.997, -0.435, 0.221, -0.522, -0.684, 0.839, -0.753, -0.863, 0.615, 0.627, -0.259, 0.41, 0.21, 0.17, -0.712, 0.194, -0.323, 0.2, 0.89, -0.775, 0.954, -0.88, -0.131, -0.179, -0.691, 0.392, -0.611, -0.658, 0.262, -0.225, 0.643, -0.253, -0.487, 0.46, 0.751, -0.18, 0.302, -0.322, 0.585, 0.421, 0.694, 0.638, -0.386, -0.402, -0.209, -0.429, 0.53, -0.463, 0.04, 0.285, -0.244, -0.612, 0.353, -0.525, -0.671, -0.554, 0.679, 0.22, -0.147, 0.484, -0.483, -0.626, -0.885, 0.501, -0.645, -0.406, 0.129, -0.463, 0.843, 0.004, -0.01, -0.376, -0.741, 0.704, -0.811, 0.6, 0.989, 0.79, 0.682, -0.272, -0.725, -0.696, -0.252, 0.807, 0.333, 0.468, 0.553, -0.586, 0.08, -0.308, 0.621, 0.654, -0.3, -0.5, 0.604, -0.114, -0.96, 0.451, -0.182, -0.943, 0.3, -0.894, 0.665, 0.821, 0.66, 0.019, 0.629, 0.945, -0.345, -0.853, 0.133, -0.287, 0.242, 0.668, -0.759, 0.479, -0.7, 0.852, 0.099, 0.984, -0.271, -0.642, -0.679, 0.858, 0.079, 0.484, -0.314, 0.444, 0.712, -0.133, 0.399, 0.008, 0.649, 0.2, 0.234, 0.091, 0.714, 0.335, 0.883, 0.183, -0.918, 0.931, 0.14, 0.425, 0.845, -0.48, 0.996, 0.44, 0.294, -0.368, 0.493, -0.957, -0.874, -0.752, -0.204, 0.312, -0.601, -0.654, -0.063, 0.675, 0.391, 0.264, -0.717, 0.927, -0.267, -0.82, -0.919, -0.817, 0.915, -0.364, 0.609, 0.116, -0.589, 0.646, -0.602, 0.632, 0.867, 0.886, 0.076, 0.483, 0.361, -0.252, 0.508, 0.36, 0.524, -0.509, 0.76, -0.901, -0.42, -0.443, 0.954, -0.825, -0.551, -0.326, 0.124, -0.448, 0.835, 0.777, 0.586, -0.781, 0.928, 0.711, -0.325, -0.899, -0.546, -0.544, 0.92, -0.349, -0.148, -0.815, -0.289, 0.704, 0.497, -0.597, 0.504, -0.331, 0.287, -0.87, 0.799, -0.378, 0.52, 0.625, -0.952, -0.953, -0.051, 0.265, -0.424, -0.699, 0.821, -0.999, -0.431, 0.983, 0.789, 0.188, 0.391, -0.686, 0.521, 0.158, 0.805, 0.275, 0.432, 0.86, -0.186, -0.758, -0.31, 0.206, 0.17, 0.15, 0.57, 0.148, -0.644, -0.899, 0.898, 0.957, 0.725, -0.408, 0.113, -0.084, -0.002, 0.078, 0.107, -0.637, -0.779, 0.423, 0.358, 0.608, -0.041, 0.928, -0.873, -0.238, -0.832, 0.157, 0.153, 0.066, -0.615, 0.187, -0.533, 0.305, 0.247, -0.686, 0.697, 0.313, 0.997, 0.511, 0.338, -0.693, 0.651, -0.014, -0.093, -0.471, -0.024, -0.813, -0.591, -0.827, 0.957, 0.472, 0.001, 0.179, -0.39, -0.704, 0.575, -0.172, 0.979, 0.567, 0.845, 0.906, -0.921, -0.865, -0.532, 0.173, -0.321, -0.304, 0.887, 0.596, 0.664, 0.241, -0.245, -0.473, -0.386, -0.086, 0.684, -0.237, 0.364, -0.995, 0.827, -0.9, 0.949, 0.219, 0.36, 0.697, -0.054, 0.94, 0.609, -0.039, -0.578, 0.627, -0.879, 0.12, 0.781, -0.599, 0.279, -0.618, 0.852, 0.2, -0.131, -0.261, 0.835, -0.656, -0.038, -0.246, -0.068, -0.931, 0.145, 0.926, -0.915, -0.389, 0.943, -0.338, 0.275, 0.015, -0.132, -0.524, 0.325, 0.042, 0.853, -0.713, -0.557, 0.277, 0.863, -0.441, -0.268, -0.895, -0.33, 0.473, 0.46, -0.157, -0.467, 0.003, -0.572, 0.089, 0.98, 0.904, -0.06, 0.17, -0.918, 0.526, 0.749, 0.241, -0.122, 0.65, -0.44, -0.526, -0.14, -0.206, 0.18, -0.939, 0.703, 0.124, 0.117, -0.699, 0.272, 0.974, 0.734, -0.938, 0.66, -0.306, -0.078, -0.445, 0.224, -0.739, -0.077, -0.791, 0.149, -0.525, -0.421, 0.507, -0.602, 0.199, -0.866, 0.602, -0.988, 0.281, -0.186, -0.335, 0.124, -0.447, -0.398, 0.529, 0.28, 0.253, -0.001, -0.861, 0.267, 0.041, -0.703, -0.871, -0.703, -0.501, -0.042, -0.002, 0.896, -0.207, 0.849, 0.157, -0.754, -0.116, 0.383, -0.93, -0.026, 0.779, 0.585, -0.716, 0.275, -0.379, -0.212, -0.76, 0.154, 0.796, -0.215, -0.061, 0.434, 0.979, 0.071, 0.358, -0.611, -0.185, -0.089, -0.964, -0.426, 0.429, 0.145, 0.575, 0.833, 0.879, -0.222, -0.155, -0.438, -0.377, -0.834, 0.404, 0.472, 0.699, -0.117, 0.503, -0.538, -0.143, -0.335, 0.874, 0.325, -0.278, 0.522, 0.822, -0.136, -0.071, 0.099, -0.063, 0.59, 0.905, 0.473, 0.242, 0.132, 0.936, -0.922, -0.523, 0.992, -0.911, 0.279, 0.264, -0.484, -0.899, 0.866, -0.047, 0.541, -0.618, -0.649, -0.797, -0.176, 0.286, 0.581], [-0.806, 0.693, 0.865, 0.912, -0.913, 0.096, 0.693, -0.665, 0.369, -0.508, 0.722, 0.722, -0.873, -0.725, -0.924, -0.724, -0.932, 0.314, 0.578, 0.922, 0.092, -0.637, -0.854, -0.073, 0.31, -0.009, -0.456, -0.54, 0.147, 0.662, 0.344, 0.979, 0.182, 0.39, -0.111, 0.023, -0.079, 0.436, -0.67, -0.049, 0.272, 0.291, -0.158, -0.905, 0.247, -0.405, -0.891, 0.515, 0.269, 0.216, 0.797, 0.623, -0.443, -0.85, 0.595, -0.605, -0.751, -0.128, -0.601, -0.569, 0.471, -0.298, -0.46, -0.541, 0.13, -0.665, 0.474, 0.824, -0.903, -0.075, 0.914, -0.876, -0.717, -0.359, -0.837, -0.291, -0.679, -0.02, -0.435, 0.46, 0.91, -0.817, 0.512, 0.108, 0.315, -0.446, 0.532, -0.851, -0.332, -0.978, -0.137, -0.826, 0.405, 0.596, -0.237, -0.929, -0.401, 0.732, 0.512, 0.262, 0.429, -0.356, 0.071, -0.292, 0.364, -0.186, 0.835, -0.005, -0.898, -0.07, 0.933, 0.038, -0.558, 0.005, -0.534, -0.308, 0.684, -0.751, -0.281, 0.342, -0.035, -0.809, 0.059, 0.583, 0.073, -0.988, 0.774, -0.699, 0.904, 0.948, -0.432, 0.258, -0.905, 0.052, -0.122, 0.405, 0.947, 0.926, 0.803, 0.707, -0.925, 0.702, 0.595, 0.277, -0.233, -0.479, -0.351, 0.043, -0.528, -0.45, 0.296, 0.208, -0.514, 0.768, 0.069, -0.655, 0.488, -0.381, -0.038, -0.248, -0.6, 0.068, -0.171, -0.723, -0.389, -0.874, -0.655, 0.077, -0.688, -0.805, 0.002, 0.217, -0.341, -0.039, 0.656, -0.184, 0.196, 0.354, -0.504, -0.286, 0.798, 0.882, 0.979, 0.022, 0.999, 0.958, 0.319, -0.69, -0.267, -0.189, -0.223, -0.827, 0.801, -0.482, -0.499, 0.039, -0.775, -0.073, 0.646, -0.831, 0.194, -0.217, -0.116, 0.122, -0.577, -0.404, -0.328, 0.779, -0.864, 0.073, 0.481, 0.982, 0.962, -0.574, -0.063, 0.473, 0.812, -0.877, -0.562, -0.823, 0.272, -0.685, 0.081, 0.558, 0.1, 0.021, 0.586, -0.441, -0.46, -0.164, 0.775, -0.935, -0.06, -0.784, -0.806, 0.334, 0.092, -0.46, -0.682, 0.596, 0.009, 0.611, -0.27, 0.063, -0.806, -0.934, 0.615, -0.801, -0.356, 0.491, -0.221, 0.792, -0.826, -0.647, -0.948, -0.001, 0.323, -0.908, -0.528, 0.129, -0.63, 0.101, 0.904, 0.845, 0.091, 0.851, 0.921, -0.569, 0.647, 0.415, 0.527, -0.963, 0.419, 0.273, -0.071, 0.992, 0.4, 0.49, 0.483, -0.61, 0.001, -0.029, 0.166, 0.709, -0.206, 0.575, -0.443, -0.063, -0.921, 0.365, 0.323, 0.567, 0.438, -0.095, 0.694, 0.469, -0.142, 0.515, -0.427, 0.548, -0.911, -0.66, -0.434, 0.217, -0.861, 0.505, 0.036, -0.465, -0.001, -0.84, -0.193, -0.157, 0.223, -0.553, 0.842, 0.443, 0.937, 0.787, -0.087, -0.643, -0.076, 0.979, -0.376, 0.042, 0.348, 0.424, -0.825, -0.453, 0.948, 0.452, 0.472, -0.678, 0.516, 0.56, 0.294, -0.603, -0.695, -0.731, 0.981, -0.017, -0.726, 0.664, -0.438, -0.924, 0.079, -0.797, -0.406, 0.7, 0.967, 0.357, 0.688, -0.022, -0.872, -0.221, 0.362, -0.758, -0.639, 0.679, 0.771, -0.398, -0.932, -0.223, 0.117, 0.74, -0.166, 0.752, -0.91, 0.323, -0.572, -0.519, -0.173, -0.717, -0.257, 0.094, -0.042, -0.526, -0.44, -0.46, -0.547, -0.519, 0.963, 0.676, -0.439, 0.725, -0.358, 0.763, 0.372, 0.368, 0.27, 0.214, -0.553, 0.51, 0.951, 0.555, 0.875, -0.702, 0.958, -0.083, 0.547, 0.457, 0.159, -0.264, 0.413, 0.683, 0.622, -0.361, 0.894, 0.263, 0.723, -0.569, 0.922, -0.516, -0.131, 0.608, -0.531, 0.199, 0.618, 0.395, -0.704, 0.36, 0.679, 0.951, 0.312, -0.177, 0.066, -0.431, -0.019, -0.131, 0.704, -0.778, -0.906, -0.054, -0.066, -0.599, 0.981, 0.189, -0.145, 0.232, 0.141, -0.431, -0.842, 0.866, 0.384, -0.033, 0.766, 0.432, -0.954, -0.924, 0.476, -0.377, -0.443, -0.09, 0.089, 0.241, 0.389, 0.058, -0.049, 0.806, 0.24, 0.481, 0.327, -0.651, 0.279, 0.798, 0.613, 0.795, -0.101, -0.777, -0.745, -0.064, 0.272, -0.652, 0.817, -0.028, 0.094, 0.708, -0.564, -0.865, 0.643, -0.55, 0.22, 0.967, -0.001, 0.474, 0.8, 0.586, -0.429, -0.409, -0.561, -0.349, 0.51, 0.174, 0.081, -0.245, 0.519, -0.322, -0.968, 0.838, -0.128, -0.795, 0.422, -0.747, -0.156, 0.059, 0.865, 0.218, 0.568, -0.914, 0.848, 0.46, -0.065, -0.853, -0.651, -0.399, 0.115, -0.879, 0.397, -0.305, 0.625, 0.502, 0.204, 0.525, 0.783, 0.107, 0.022, 0.905, 0.413, 0.31, 0.107, -0.635, 0.889, -0.624, 0.924, 0.247, -0.184, -0.896, -0.495, -0.942, -0.942, -0.055, -0.336, 0.509, -0.006, 0.246, 0.465, -0.079, 0.401, -0.142, 0.215, 0.845, 0.797, 0.916, -0.6, -0.335, -0.193, -0.647, 0.136, -0.059, -0.314, 0.3, -0.52, 0.108, 0.727, -0.815, 0.522, -0.747, 0.657, -0.607, 0.163, -0.975, 0.284, -0.963, -0.464, 0.039, 0.747, -0.928, 0.515, 0.49, 0.159, -0.216, 0.376, -0.908, 0.984, -0.899, -0.181, 0.811, 0.672, 0.65, 0.102, 0.234, 0.872, -0.939, 0.653, 0.276, -0.922, -0.003, -0.407, -0.726, -0.008, -0.266, -0.965, -0.541, 0.464, 0.507, -0.453, 0.244, 0.96, -0.989, -0.245, -0.515, 0.156, 0.005, 0.447, -0.1, 0.533, 0.953, -0.238, -0.587, -0.904, -0.106, -0.207, 0.428, 0.553, -0.988, 0.721], [0.611, 0.728, -0.609, 0.733, 0.504, -0.427, -0.238, -0.095, -0.434, 0.895, 0.989, 0.858, -0.463, 0.554, -0.664, -0.273, 0.992, 0.166, 0.522, -0.103, 0.787, 0.031, -0.051, -0.539, -0.267, -0.701, -0.423, 0.933, -0.901, -0.409, 0.085, 0.909, -0.395, -0.522, -0.477, 0.299, 0.857, 0.54, 0.585, -0.904, 0.563, -0.898, -0.077, 0.63, -0.827, 0.695, 0.833, 0.727, 0.702, -0.435, -0.66, -0.492, 0.483, 0.858, 0.541, 0.518, -0.321, 0.076, 0.174, -0.525, -0.109, -0.946, -0.211, -0.429, -0.932, 0.81, -0.26, 0.603, 0.427, -0.663, 0.015, -0.027, -0.354, 0.456, -0.075, 0.535, -0.303, 0.165, 0.92, 0.513, -0.835, 0.133, 0.939, 0.353, -0.521, 0.197, 0.762, -0.108, 0.449, -0.008, -0.384, -0.288, -0.639, -0.358, -0.758, -0.981, -0.352, -0.212, 0.186, -0.758, -0.686, -0.425, -0.466, 0.946, 0.008, 0.509, 0.696, -0.52, -0.042, -0.279, -0.71, 0.082, 0.023, -0.245, -0.68, -0.68, 0.553, -0.902, 0.307, -0.302, -0.046, 0.276, 0.283, -0.006, -0.256, 0.753, -0.998, -0.145, -0.019, -0.746, -0.561, -0.475, -0.386, -0.93, -0.261, -0.23, 0.686, -0.541, -0.634, -0.313, 0.616, -0.82, -0.659, -0.614, 0.815, 0.417, -0.213, 0.066, -0.455, 0.736, -0.61, -0.743, 0.657, 0.062, -0.396, -0.262, 0.898, -0.773, -0.301, 0.838, -0.529, -0.272, 0.373, 0.392, 0.947, -0.567, -0.214, 0.561, -0.831, -0.716, 0.521, 0.45, 0.092, 0.481, -0.234, 0.178, -0.163, 0.116, -0.131, 0.319, -0.802, 0.383, 0.85, -0.291, 0.314, 0.247, -0.193, -0.119, -0.482, -0.281, 0.228, -0.758, -0.935, 0.796, -0.477, 0.895, 0.61, -0.976, -0.212, -0.72, 0.068, 0.955, -0.151, 0.605, -0.529, -0.58, 0.706, -0.549, 0.235, -0.475, -0.603, -0.106, 0.606, -0.581, -0.891, -0.537, -0.335, -0.783, 0.409, 0.771, 0.071, 0.521, 0.658, -0.353, 0.15, 0.406, 0.055, 0.845, 0.257, 0.097, 0.649, 0.108, 0.701, 0.112, 0.711, 0.411, -0.544, -0.159, -0.456, 0.056, 0.471, -0.715, 0.847, -0.412, 0.236, -0.277, 0.156, -0.17, 0.662, -0.464, -0.599, 0.943, 0.33, -0.911, -0.724, 0.132, 0.398, -0.539, -0.605, -0.854, 0.282, -0.775, 0.941, 0.712, 0.562, -0.139, -0.177, -0.319, 0.89, -0.81, 0.857, -0.799, -0.362, 0.194, -0.272, -0.669, 0.779, 0.776, 0.673, -0.81, -0.128, -0.062, -0.412, 0.761, 0.737, 0.53, -0.216, 0.364, 0.489, 0.789, 0.426, -0.344, 0.677, -0.114, 0.911, -0.936, 0.89, -0.676, 0.767, 0.297, -0.294, 0.233, -0.123, 0.803, 0.011, 0.765, -0.013, -0.488, 0.917, -0.077, -0.891, 0.371, 0.906, 0.081, 0.121, -0.006, -0.282, -0.89, 0.343, -0.053, 0.219, -0.5, -0.67, -0.034, -0.927, -0.852, 0.797, -0.426, 0.839, 0.373, 0.629, 0.389, 0.317, -0.429, -0.159, -0.531, -0.987, -0.976, -0.555, -0.044, -0.08, 0.342, 0.364, -0.001, 0.799, -0.324, 0.191, -0.931, 0.731, -0.238, 0.706, 0.423, 0.816, 0.035, 0.15, 0.536, 0.656, 0.627, -0.573, -0.012, -0.938, -0.781, -0.46, 0.305, -0.644, -0.648, 0.613, 0.706, 0.684, 0.792, 0.555, 0.757, -0.457, -0.073, 0.253, 0.242, 0.245, 0.98, -0.202, -0.359, -0.142, 0.909, 0.523, -0.694, 0.038, -0.818, -0.4, 0.28, 0.833, -0.099, 0.203, -0.775, 0.26, -0.576, -0.254, 0.181, -0.137, -0.117, 0.552, 0.29, 0.397, -0.542, 0.394, 0.893, -0.869, -0.394, -0.186, -0.856, 0.243, 0.417, 0.926, 0.494, 0.703, 0.233, -0.938, -0.946, 0.575, 0.191, 0.501, -0.016, -0.266, 0.525, 0.883, -0.199, -0.442, -0.612, 0.891, 0.434, -0.153, 0.178, 0.087, 0.696, 0.147, -0.162, 0.566, -0.055, 0.444, -0.389, 0.188, -0.073, -0.771, -0.106, -0.482, 0.732, 0.294, -0.3, 0.451, 0.168, 0.639, -0.168, -0.608, 0.494, 0.041, 0.659, 0.817, -0.555, -0.887, 0.504, 0.013, 0.559, 0.158, -0.487, 0.455, -0.113, -0.519, -0.056, 0.016, 0.568, 0.893, 0.792, -0.687, -0.891, -0.042, 0.423, 0.878, 0.74, -0.191, 0.166, -0.252, -0.693, -0.999, 0.964, 0.751, -0.353, 0.154, 0.049, 0.084, 0.314, -0.869, 0.304, 0.992, -0.881, 0.661, 0.485, 0.434, 0.124, 0.183, 0.313, -0.416, -0.425, 0.719, 0.731, -0.17, -0.651, -0.132, 0.101, -0.762, 0.499, 0.179, 0.593, -0.59, 0.251, -0.1, 0.074, -0.787, 0.629, 0.192, -0.593, -0.851, 0.979, 0.44, -0.336, -0.086, -0.763, -0.12, 0.547, -0.211, 0.831, -0.456, -0.765, 0.735, 0.7, 0.15, 0.016, -0.475, -0.326, -0.488, 0.757, 0.02, -0.383, -0.423, -0.454, -0.259, -0.74, -0.304, 0.394, 0.505, -0.715, 0.755, -0.776, -0.662, 0.465, 0.312, -0.128, 0.074, 0.631, -0.044, -0.513, 0.869, -0.586, 0.935, -0.012, -0.228, 0.696, -0.482, 0.164, -0.362, -0.684, -0.937, 0.301, -0.195, -0.277, 0.638, 0.653, -0.313, -0.256, 0.386, -0.081, -0.21, 0.188, 0.442, -0.662, -0.367, 0.53, -0.879, -0.124, -0.705, 0.594, 0.964, -0.744, 0.825, 0.031, -0.177, 0.33, -0.483, -0.256, 0.968, -0.981, -0.854, -0.862, -0.279, 0.118, 0.767, 0.643, -0.393, -0.619, 0.677, -0.206, 0.293, -0.142, -0.954, 0.714, 0.251, 0.189, -0.544, -0.977, -0.577, -0.189, -0.577, 0.133, 0.963, 0.893, 0.366, 0.781, 0.681], [-0.645, -0.576, -0.694, 0.253, -0.035, 0.807, -0.697, 0.568, -0.563, 0.332, 0.105, -0.216, 0.458, 0.068, -0.606, 0.834, 0.253, -0.16, 0.826, -0.586, -0.562, -0.04, -0.561, 0.36, 0.196, 0.971, 0.083, 0.261, 0.685, -0.707, 0.645, 0.266, 0.999, 0.569, -0.61, 0.543, 0.725, 0.071, -0.251, -0.383, -0.48, -0.537, 0.473, -0.733, -0.03, -0.69, 0.94, -0.468, 0.846, -0.989, 0.998, -1.0, 0.977, 0.991, -0.816, 0.409, -0.189, -0.069, -0.035, -0.441, 0.803, 0.335, 0.456, 0.106, -0.955, 0.61, 0.412, -0.859, -0.075, -0.459, -0.984, 0.595, 0.072, 0.843, -0.043, -0.404, -0.53, -0.202, 0.695, 0.872, 0.64, 0.135, -0.973, 0.052, -0.003, -0.434, 0.909, 0.803, -0.199, 0.932, -0.284, 0.286, -0.551, -0.243, -0.758, 0.364, -0.207, -0.991, 0.841, 0.035, 0.726, -0.602, -0.925, 0.968, 0.734, -0.266, -0.401, -0.092, -0.827, -0.638, -0.932, -0.809, -0.734, 0.552, -0.459, -0.454, -0.171, 0.593, -0.89, -0.364, -0.112, -0.124, -0.333, -0.224, 0.276, -0.75, 0.543, -0.236, -0.49, 0.188, 0.754, -0.653, 0.183, -0.314, -0.382, 0.373, -0.174, 0.703, 0.797, -0.226, -0.04, 0.326, -0.315, 0.841, -0.158, -0.726, 0.207, 0.335, 0.721, 0.808, -0.857, -0.93, 0.306, -0.257, -0.113, -0.915, 0.615, -0.891, -0.548, 0.346, -0.961, -0.097, -0.684, -0.018, 0.424, -0.531, -0.826, 0.553, 0.702, 0.744, 0.95, -0.597, -0.144, -0.809, -0.478, -0.033, 0.049, 0.27, -0.883, -0.343, -0.87, 0.715, -0.828, -0.272, -0.06, -0.55, 0.494, 0.597, 0.264, 0.506, -0.588, -0.642, -0.34, -0.541, -0.595, 0.446, 0.211, -0.841, -0.253, 0.221, -0.496, 0.096, -0.258, 0.68, 0.648, -0.713, 0.497, 0.401, -0.951, -0.453, 0.78, -0.933, 0.627, 0.328, 0.938, -0.301, -0.136, 0.097, -0.92, 0.591, -0.836, -0.211, -0.644, -0.345, 0.617, 0.242, 0.972, -0.197, 0.995, -0.521, 0.306, 0.602, -0.696, -0.403, -0.316, 0.308, -0.552, 0.192, -0.305, 0.921, 0.342, 0.425, 0.223, 0.294, -0.663, -0.084, 0.31, -0.06, 0.806, -0.186, -0.058, 0.809, -0.516, -0.27, -0.395, 0.308, 0.601, 0.69, -0.855, 0.852, -0.611, -0.593, 0.476, -0.397, 0.263, 0.586, -0.5, 0.954, 0.076, -0.405, -0.413, 0.937, -0.908, 0.316, -0.049, -0.123, 0.35, -0.806, -0.522, -0.51, -0.964, -0.575, 0.792, 0.871, 0.475, 0.662, -0.845, 0.69, 0.478, -0.422, 0.594, -0.41, -0.797, 0.754, 0.921, 0.049, 0.152, 0.162, 0.476, 0.47, 0.536, 0.779, -0.58, 0.316, 0.593, 0.526, -0.299, 0.813, 0.668, -0.166, -0.767, 0.236, 0.601, 0.036, -0.676, -0.879, 0.056, -0.369, 0.907, 0.878, -0.761, -0.998, 0.406, -0.261, -0.878, 0.446, 0.091, -0.659, 0.566, 0.513, -0.333, -0.149, 0.16, -0.256, 0.736, -0.389, -0.801, -0.387, 0.836, -0.116, -0.001, -0.121, 0.661, -0.16, 0.916, 0.502, -0.41, 0.612, 0.947, 0.473, -0.16, -0.277, 0.656, -0.627, -0.75, 0.464, -0.927, -0.021, 0.8, 0.499, 0.884, 0.995, -0.514, 0.977, 0.153, 0.923, -0.076, 0.604, -0.546, -0.188, 0.278, -0.535, 0.424, 0.746, 0.234, 0.981, 0.24, -0.263, -0.211, 0.781, -0.474, 0.992, -0.578, -0.065, -0.232, -0.161, -0.248, -0.865, -0.134, -0.587, 0.397, -0.973, -0.33, 0.638, 0.973, 0.179, 0.891, -0.653, -0.565, 0.638, 0.756, -0.57, 0.211, 0.286, -0.131, -0.391, -0.856, -0.764, -0.485, -0.131, 0.394, 0.661, 0.054, -0.943, 0.555, -0.254, 0.517, -0.187, -0.391, 0.032, -0.256, 0.802, 0.827, -0.436, 0.221, -0.808, -0.836, -0.62, 0.916, 0.921, -0.125, -0.181, -0.879, -0.032, 0.157, -0.391, -0.727, -0.901, 0.3, -0.993, 0.186, -0.632, -0.221, -0.482, -0.324, 0.992, 0.24, -0.556, -0.972, -0.998, -0.577, -0.921, -0.841, 0.513, -0.631, -0.525, 0.903, 0.538, 0.635, 0.118, -0.168, -0.912, -0.743, -0.593, -0.773, -0.491, 0.874, -0.96, 0.059, 0.518, 0.641, 0.767, -0.207, 0.777, -0.031, 0.166, -0.947, -0.815, -0.494, -0.185, 0.13, -0.04, -0.479, 0.619, -0.685, -0.411, 0.961, 0.841, -0.165, -0.868, 0.798, 0.265, 0.778, -0.553, 0.85, 0.095, 0.516, 0.638, -0.955, 0.98, 0.693, -0.811, 0.531, -0.522, 0.278, 0.753, -0.117, -0.06, 0.179, 0.33, -0.913, 0.563, -0.095, 0.094, 0.044, 0.849, 0.932, 0.49, -0.335, 0.401, -0.018, 0.598, -0.26, -0.153, -0.822, 0.509, -0.258, 0.664, -0.367, 0.744, -0.635, 0.252, 0.652, 0.283, 0.981, -0.878, -0.207, 0.41, -0.065, 0.62, 0.051, -0.515, 0.36, 0.086, 0.55, -0.47, -0.008, 0.767, 0.945, -0.93, -0.889, 0.322, 0.335, 0.006, -0.199, -0.774, -0.609, 0.683, -0.817, -0.437, -0.062, -0.561, 0.749, 0.057, 0.605, -0.268, -0.405, 0.115, -0.772, 0.247, 0.283, 0.396, -0.495, 0.331, 0.956, 0.814, -0.699, -0.192, -0.766, -0.091, 0.454, -0.794, 0.681, 0.765, -0.421, 0.707, 0.947, 0.486, 0.607, 0.7, 0.587, 0.606, 0.74, 0.234, 0.646, -0.045, -0.491, -0.275, -0.238, 0.965, -0.719, -0.413, -0.126, -0.635, 0.842, -0.23, 0.631, 0.221, 0.298, 0.415, 0.381, 0.023, -0.175, 0.83, -0.532, -0.536, -0.806, -0.4, -0.699, -0.528, -0.644, 0.862, 0.97, 0.791, -0.848], [0.98, 0.688, -0.488, -0.041, 0.304, 0.38, 0.31, -0.651, 0.079, 0.006, -0.113, 0.886, 0.709, 0.472, 0.123, -0.127, 0.061, 0.76, -0.128, -0.131, -0.959, 0.717, 0.046, 0.993, 0.747, -0.855, 0.955, 0.661, -0.059, 0.575, 0.642, -0.299, 0.661, -0.702, -0.82, -0.032, -0.32, 0.555, 0.79, 0.789, -0.541, -0.059, -0.073, -0.949, -0.469, -0.281, -0.535, 0.931, 0.821, -0.322, 0.948, -0.232, -0.474, 0.671, -0.559, -0.516, -0.102, 0.502, -0.645, -0.14, 0.219, -0.315, 0.313, -0.055, -0.646, -0.779, -0.215, 0.411, -0.812, -0.848, 0.611, 0.628, 0.607, 0.615, 0.478, -0.939, 0.116, -0.481, 0.439, -0.02, 0.85, 0.42, 0.236, 0.732, 0.281, 0.56, 0.965, -0.859, 0.93, 0.219, -0.443, -0.793, 0.885, 0.538, 0.56, -0.179, -0.139, 0.119, 0.454, 0.349, 0.632, 0.538, 0.501, -0.7, 0.655, -0.845, -0.552, 0.578, 0.894, 0.029, 0.441, 0.103, 0.777, -0.327, -0.097, 0.738, 0.084, -0.831, -0.95, -0.468, 0.628, -0.022, 0.582, 0.49, -0.659, -0.339, 0.513, 0.234, -0.775, -0.336, 0.872, 0.512, 0.674, 0.021, -0.174, 0.449, 0.064, -0.788, 0.105, 0.251, -0.605, -0.516, 0.945, 0.073, 0.747, 0.657, -0.458, 0.331, 0.025, -0.303, 0.907, 0.77, -0.841, 0.057, 0.557, -0.557, 0.435, 0.782, 0.791, 0.599, 0.83, 0.807, 0.918, -0.832, -0.589, -0.596, -0.88, 0.919, -0.654, 0.8, -0.636, 0.998, -0.089, -0.498, 0.505, -0.082, -0.033, -0.902, -0.404, -0.435, 0.28, -0.702, -0.5, 0.976, 0.055, -0.494, 0.065, 0.636, -0.886, 0.573, -0.518, -0.327, -0.265, -0.378, 0.635, -0.797, -0.301, 0.379, -0.472, 0.133, 0.846, 0.597, -0.753, 0.214, 0.801, -0.118, 0.37, -0.465, -0.88, -0.334, 0.645, -0.298, -0.927, -0.405, -0.505, 0.66, -0.054, 0.876, 0.237, -0.919, -0.557, 0.394, 0.083, 0.292, 0.433, -0.736, -0.977, -0.923, 0.525, 0.313, 0.035, 0.908, 0.238, 0.418, -0.28, -0.715, -0.002, -0.582, -0.901, -0.588, 0.105, 0.581, 0.338, 0.553, 0.657, 0.247, 0.304, 0.317, -0.616, 0.058, 0.134, 0.666, 0.706, -0.635, -0.672, -0.716, -0.049, -0.377, -0.198, -0.847, -0.473, 0.592, 0.622, -0.746, -0.053, 0.337, 0.851, -0.032, -0.622, -0.481, -0.026, -0.817, 0.996, 0.745, 0.776, -0.35, 0.184, -0.096, 0.726, -0.886, 0.892, 0.171, 0.955, -0.235, 0.572, 0.11, 0.003, -0.188, -0.163, -0.791, 0.963, 0.938, 0.631, 0.278, -0.935, 0.853, 0.632, -0.389, -0.13, 0.773, -0.064, 0.233, -0.344, 0.35, 0.446, -0.369, 0.607, -0.715, -0.264, -0.798, -0.168, 0.353, -0.974, 0.423, -0.5, 0.287, 0.334, 0.638, 0.159, 0.254, -0.055, 0.614, 0.983, 0.298, 0.525, 0.367, 0.794, -0.992, -0.267, 0.319, -0.932, -0.735, 0.253, -0.041, -0.244, -0.036, -0.721, -0.554, -0.961, 0.858, 0.05, 0.597, -0.986, 0.043, -0.036, -0.963, -0.134, -0.742, -0.631, -0.395, 0.279, 0.134, -0.529, -0.402, -0.461, 0.146, 0.72, 0.245, 0.944, 0.885, 0.688, -0.736, -0.141, -0.138, 0.684, 0.068, 0.432, -0.091, -0.647, -0.157, -0.73, -0.227, -0.698, -0.014, -0.155, 0.587, -0.383, 0.762, 0.566, -0.07, 0.384, -0.139, -0.174, -0.718, 0.28, 0.731, -0.954, -0.896, -0.494, -0.484, 0.711, -0.655, -0.72, 0.677, -0.061, -0.978, -0.254, 0.526, 0.703, 0.615, 0.753, -0.283, -0.201, -0.25, 0.502, 0.209, 0.211, 0.086, -0.026, -0.785, 0.47, 0.687, -0.589, -0.466, -0.551, 0.033, -0.654, 0.338, 0.359, 0.632, 0.802, 0.784, -0.733, 0.921, 0.261, 0.768, -0.658, -0.564, 0.835, -0.072, 0.988, 0.399, -0.564, -0.934, -0.202, -0.001, -0.72, 0.209, 0.11, -0.134, -0.658, 0.651, -0.495, 0.32, 0.307, -0.383, -0.854, 0.27, 0.221, -0.484, -0.425, -0.597, -0.353, 0.275, 0.286, -0.217, -0.584, 0.236, -0.071, -0.933, -0.698, -0.853, 0.055, -0.637, 0.812, 0.187, 0.985, -0.773, -0.552, 0.394, -0.991, 0.655, -0.954, 0.722, -0.293, 0.62, 0.491, 0.894, -0.406, 0.481, 0.766, -0.455, 0.324, -0.226, -0.603, -0.646, -0.325, -0.456, 0.686, -0.935, -0.731, 0.418, -0.529, -0.345, 0.032, -0.159, 0.481, -0.703, -0.14, 0.95, 0.995, -0.971, -0.694, 0.304, -0.726, 0.36, 0.639, -0.068, 0.372, -0.354, 0.388, 0.107, 0.769, 0.014, -0.384, -0.229, 0.272, -0.02, -0.581, 0.292, 0.372, 0.52, -0.219, -0.716, -0.062, -0.67, -0.024, 0.557, 0.4, 0.953, 0.495, 0.73, 0.609, -0.994, 0.212, 0.186, -0.28, 0.777, -0.262, 0.057, 0.653, 0.772, -0.28, -0.556, -0.174, -0.746, 0.07, 0.31, 0.124, 0.96, -0.075, 0.825, -0.529, 0.669, 0.831, 0.837, -0.135, -0.993, 0.699, -0.257, -0.26, -0.825, 0.868, 0.655, -0.816, -0.148, 0.971, -0.465, 0.408, -0.276, -0.552, 0.807, -0.448, -0.923, -0.196, -0.373, 0.17, -0.603, 0.169, 0.045, 0.732, 0.569, -0.485, 0.994, -0.948, -0.574, 0.572, -0.284, 0.296, 0.816, -0.596, 0.258, -0.664, -0.92, -1.0, -0.627, -0.291, 0.315, -0.093, -0.238, 0.383, -0.328, -0.807, -0.229, 0.991, 0.158, -0.237, -0.768, -0.103, -0.735, -0.67, 0.253, 0.724, 0.677, 0.769, 0.224, 0.544, -0.181, -0.194, 0.434, 0.92, -0.866, 0.854, -0.919, -0.087], [-0.864, -0.947, 0.426, -0.46, 0.649, -0.592, 0.143, 0.67, 0.358, 0.498, -0.762, -0.947, 0.796, 0.65, 0.763, -0.696, 0.306, -0.527, -0.92, -0.141, 0.759, -0.234, -0.904, -0.926, 0.04, -0.313, -0.929, -0.915, -0.475, 0.388, 0.927, 0.504, -0.039, -0.995, -0.822, 0.895, -0.232, 0.482, 0.712, -0.004, -0.668, -0.229, -0.249, -0.43, 0.567, -0.558, 0.925, 0.685, -0.478, 0.339, -0.872, -0.365, -0.031, 0.802, 0.987, 0.876, 0.26, 0.701, -0.755, -0.774, -0.067, 0.276, 0.19, 0.542, 0.477, -0.772, -0.362, 0.854, -0.075, 0.884, 0.26, -0.79, 0.517, 0.952, -0.734, -0.461, -0.222, 0.934, -0.135, 0.176, 0.763, 0.001, 0.75, 0.085, 0.732, 0.203, 0.428, 0.859, 0.932, 0.062, 0.167, -0.817, -0.014, 0.273, -0.735, -0.934, -0.509, 0.555, -0.629, 0.309, 0.734, 0.46, -0.615, 0.609, -0.489, -0.828, 0.301, -0.589, 0.872, -0.055, -0.691, -0.182, 0.517, -0.045, -0.459, 0.502, 0.179, 0.64, -0.839, 0.306, 0.288, 0.578, -0.472, -0.672, 0.13, 0.382, -0.744, 0.687, -0.206, 0.017, -0.711, 0.769, 0.756, -0.283, -0.132, -0.26, -0.301, 0.45, -0.172, 0.485, 0.741, 0.182, 0.265, -0.355, 0.463, 0.779, -0.822, 0.222, -0.458, 0.049, 0.954, 0.663, 0.606, 0.246, 0.25, -0.869, -0.237, 0.733, -0.644, 0.399, 0.398, -0.915, 0.468, -0.026, 0.888, 0.699, 0.014, 0.641, 0.138, 0.311, 0.688, 0.133, -0.6, -0.094, 0.96, -0.477, -0.48, -0.469, -0.34, 0.579, 0.939, -0.773, 0.549, -0.914, -0.985, 0.128, 0.296, -0.55, -0.514, -0.452, 0.556, 0.727, -0.337, 0.589, 0.575, -0.584, 0.277, 0.124, -0.346, 0.771, -0.375, 0.883, 0.913, -0.249, -0.436, 0.108, -0.063, 0.727, 0.407, 0.652, -0.71, 0.806, -0.372, 0.038, -0.279, -0.375, 0.845, 0.648, -0.887, -0.223, -0.618, -0.568, 0.351, 0.588, -0.416, -0.532, 0.873, -0.469, -0.621, -0.966, -0.974, -0.341, -0.696, 0.592, -0.367, -0.876, 0.227, 0.515, 0.31, -0.715, -0.368, 0.725, 0.24, 0.951, -0.419, 0.03, 0.785, 0.8, -0.361, -0.586, 0.721, 0.925, -0.571, -0.83, 0.244, -0.526, -0.488, 0.573, -0.306, 0.353, -0.591, 0.15, 0.539, 0.575, -0.883, 0.493, -0.134, -0.739, -0.902, 0.831, -0.49, -0.579, 0.928, 0.876, 0.901, 0.36, -0.698, 0.14, -0.411, -0.088, -0.341, 0.853, 0.802, 0.489, -0.473, 0.798, -0.815, -0.332, 0.236, -0.406, -0.175, 0.267, -0.715, 0.702, 0.387, -0.605, 0.533, -0.776, 0.216, 0.722, 0.834, -0.624, -0.899, 0.096, -0.864, 0.044, 0.582, -0.103, -0.72, -0.079, -0.795, -0.746, 0.819, -0.591, -0.454, 0.409, 0.111, -0.856, 0.459, 0.086, -0.361, 0.392, -0.234, -0.802, 0.693, 0.465, -0.978, 0.898, 0.966, 0.121, 0.744, -0.983, -0.675, 0.034, 0.619, -0.671, 0.396, -0.163, 0.632, 0.478, 0.701, 0.852, -0.521, -0.002, -0.121, -0.218, 0.996, -0.869, -0.319, -0.44, -0.006, -0.404, 0.317, 0.719, 0.968, 0.469, -0.462, -0.453, 0.299, -0.196, 0.328, 0.207, -0.355, -0.963, 0.825, 0.639, 0.262, -0.031, -0.165, -0.404, -0.009, 0.227, -0.977, 0.037, 0.456, -0.846, -0.813, -0.45, 0.908, 0.142, -0.305, -0.564, 0.354, 0.689, 0.292, 0.321, -0.496, -0.068, 0.973, -0.258, -0.828, -0.613, -0.346, -0.909, 0.855, 0.309, 0.041, -0.839, 0.825, -0.858, -0.018, 0.038, 0.533, 0.462, -0.245, 0.706, -0.13, 0.997, -0.468, 0.601, -0.551, 0.917, 0.204, -0.365, -0.57, -0.013, 0.001, 0.703, -0.814, -0.742, 0.127, 0.149, 0.309, -0.124, 0.718, 0.62, 0.312, -0.291, 0.853, 0.902, -0.216, 0.626, -0.869, 0.822, 0.373, 0.287, -0.324, 0.709, -0.555, 0.956, -0.272, -0.475, -0.62, 0.316, 0.531, -0.171, 0.13, -0.434, 0.158, -0.012, -0.074, -0.057, 0.539, -0.132, -0.118, 0.837, -0.867, 0.043, 0.691, 0.235, -0.612, -0.804, 0.339, 0.801, 0.339, -0.904, -0.188, -0.594, -0.667, 0.831, -0.912, 0.837, -0.29, -0.455, -0.31, 0.718, 0.555, 0.51, 0.512, -0.413, 0.207, -0.078, -0.585, -0.328, -0.21, 0.668, -0.466, -0.505, 0.619, -0.477, -0.934, -0.644, 0.841, -0.792, 0.789, 0.997, -0.971, -0.197, -0.777, -0.205, 0.247, -0.746, -0.738, 0.455, -0.152, -0.579, -0.913, 0.035, 0.383, -0.072, 0.626, -0.233, -0.855, -0.391, 0.4, -0.694, -0.59, 0.004, 0.895, 0.652, 0.099, 0.719, -0.666, -0.317, 0.836, 0.826, 0.532, 0.653, 0.299, 0.34, -0.396, 0.528, -0.993, -0.273, -0.777, 0.566, -0.422, -0.814, -0.854, -0.891, 0.297, -0.344, -0.153, 0.768, -0.394, -0.54, -0.468, 0.34, -0.737, 0.677, 0.507, 0.874, 0.985, -0.962, -0.235, -0.066, -0.28, 0.4, 0.743, -0.596, -0.33, 0.205, -0.347, 0.627, -0.568, -0.75, -0.365, 0.02, 0.385, 0.794, -0.34, -0.692, 0.443, -0.999, -0.267, -0.015, -0.487, 0.482, -0.115, -0.58, 0.073, 0.213, -0.808, -0.365, -0.876, 0.173, 0.702, 0.637, -0.254, -0.203, -0.509, 0.639, 0.157, 0.127, 0.257, 0.173, 0.542, 0.84, 0.288, 0.73, 0.04, -0.169, 0.998, 0.474, -0.867, 0.624, 0.657, 0.152, 0.998, 0.823, -0.191, -0.645, 0.632, -0.339, 0.572, 0.325, -0.874, 0.249, -0.846, -0.744, 0.45, -0.003, 0.289, -0.471, 0.512], [0.852, 0.136, -0.637, 0.179, 0.671, -0.848, -0.274, 0.25, -0.172, 0.833, -0.793, 0.344, 0.636, -0.748, 0.427, -0.963, 0.073, 0.401, 0.671, 0.55, 0.908, 0.189, -0.92, 0.427, 0.786, 0.299, -0.406, -0.57, -0.297, -0.454, -0.481, -0.184, -0.46, 0.071, 0.35, 0.43, 0.756, 0.266, 0.803, 0.25, -0.443, -0.796, -0.768, -0.965, -0.219, 0.097, -0.842, -0.791, 0.378, 0.71, -0.603, -0.505, -0.26, 0.512, 0.953, 0.13, 0.718, 0.635, 0.392, 0.523, 0.653, 0.156, -0.334, 0.914, -0.176, -0.067, 0.374, -0.139, -0.774, -0.348, 0.866, -0.886, 0.633, 0.747, -0.43, 0.641, -0.119, -0.965, -0.241, -0.421, 0.613, -0.682, -0.951, 0.908, -0.184, -0.443, 0.453, -0.34, 0.645, -0.451, -0.01, 0.89, -0.394, 0.919, -0.336, 0.65, -0.469, -0.875, 0.148, 0.216, 0.171, 0.196, 0.722, 0.772, 0.381, 0.459, -0.793, -0.49, 0.478, -0.03, -0.969, 0.153, -0.526, -0.031, 0.209, 0.824, 0.651, -0.556, -0.961, 0.324, 0.973, -0.938, -0.721, -0.528, -0.172, 0.521, -0.834, 0.929, 0.365, 0.506, 0.831, 0.081, 0.222, 0.325, 0.809, 0.778, 0.75, 0.324, 0.612, 0.416, -0.098, 0.917, 0.862, 0.325, -0.926, -0.646, 0.68, 0.661, -0.123, -0.872, 0.988, -0.719, -0.256, 0.964, 0.77, 0.955, -0.801, 0.934, -0.706, -0.338, 0.442, 0.329, 0.506, 0.739, 0.701, 0.611, -0.587, 0.832, 0.348, 0.989, -0.723, 0.379, 0.316, 0.117, 0.262, -0.405, 0.54, 0.619, -0.143, 0.192, -0.225, -0.598, 0.499, 0.782, 0.675, 0.435, 0.179, -0.232, 0.48, 0.376, -0.815, 0.66, -0.876, -0.472, -0.728, -0.897, -0.285, 0.596, -0.377, 0.357, 0.392, -0.454, 0.4, 0.582, -0.148, 0.456, -0.881, -0.121, -0.659, 0.965, 0.172, -0.875, -0.796, 0.286, 0.341, -0.784, 0.061, -0.48, 0.903, -0.574, -0.082, 0.679, 0.106, -0.741, -0.502, 0.285, 0.252, -0.746, -0.19, 0.179, 0.7, -0.264, -0.771, -0.26, -0.626, -0.933, -0.411, -0.842, 0.471, -0.024, 0.849, 0.575, -0.498, -0.733, 0.015, -0.618, 0.873, -0.619, -0.497, -0.242, 0.222, 0.52, -0.686, 0.119, -0.089, 0.168, 0.544, 0.184, -0.717, 0.743, -0.911, 0.438, -0.087, 0.73, 0.242, -0.128, -0.303, 0.583, 0.047, -0.599, -0.256, 0.322, -0.128, 0.775, -0.002, -0.349, -0.676, 0.176, -0.012, 0.406, 0.387, 0.938, 0.535, -0.566, -0.222, -0.543, 0.473, -0.002, -0.603, -0.287, -0.417, 0.139, -0.402, 0.265, 0.545, -0.934, 0.776, 0.982, -0.558, 0.87, 0.311, 0.284, 0.106, -0.39, -0.11, -0.566, -0.874, 0.515, -0.291, -0.411, 0.3, 0.398, -0.295, -0.94, -0.788, -0.27, 0.251, 0.815, -0.68, -0.405, -0.905, -0.083, 0.71, -0.336, -0.885, -0.499, -0.034, -0.658, -0.026, 0.919, 0.463, -0.94, 0.509, -0.687, 0.17, -0.569, 0.105, -0.248, -0.306, 0.518, 0.432, 0.372, -0.678, 0.187, 0.363, -0.47, -0.214, 0.445, -0.723, 0.671, 0.756, -0.697, 0.791, 0.827, -0.969, 0.931, -0.305, -0.299, -1.0, -0.762, 0.988, 0.934, -0.871, 0.826, 0.999, 0.034, -0.611, 0.765, 0.709, -0.074, 0.774, -0.445, -0.58, -0.609, -0.539, -0.111, -0.788, 0.074, -0.709, 0.032, 0.967, 0.704, -0.57, -0.529, -0.678, -0.417, 0.64, 0.977, -0.087, 0.107, 0.547, 0.546, -0.975, -0.743, 0.03, 0.831, 0.666, 0.484, -0.746, -0.871, -0.918, -0.071, 0.412, 0.488, -0.757, 0.389, -0.915, 0.893, 0.639, -0.458, 0.458, -0.422, -0.818, -0.171, 0.723, 0.272, -0.457, -0.18, 0.754, 0.102, 0.738, 0.889, -0.22, -0.479, -0.152, 0.263, -0.633, 0.204, -0.279, -0.328, -0.884, -0.391, 0.49, -0.714, 0.612, 0.425, 0.798, 0.065, 0.208, -0.125, 0.56, 0.484, 0.157, -0.994, 0.537, -0.093, -0.209, -0.017, 0.872, 0.067, -0.834, -0.573, -0.005, 0.621, 0.935, -0.924, -0.059, 0.945, -0.283, 0.209, -0.884, 0.256, -0.249, -0.479, -0.927, 0.54, 0.984, -0.929, -0.747, 0.295, 0.032, -0.143, 0.909, -0.563, -0.219, 0.299, -0.243, 0.447, 0.702, 0.666, 0.327, 0.754, -0.845, -0.221, -0.082, -0.312, 0.855, -0.22, 0.691, -0.652, -0.082, 0.982, -0.534, -0.351, -0.33, 0.51, -0.095, 0.378, -0.496, -0.077, -0.973, 0.289, -0.735, 0.173, -0.66, 0.708, 0.665, -0.817, -0.83, 0.737, 0.369, -0.024, -0.964, 0.976, 0.999, 0.964, 0.738, -0.263, -0.908, 0.42, 0.306, 0.509, -0.983, -0.789, -0.2, 0.074, 0.24, -0.064, 0.904, 0.802, -0.688, 0.591, -0.245, 0.084, 0.684, 0.078, 0.75, -0.369, -0.66, -0.933, 0.182, 0.403, 0.917, 0.992, -0.532, -0.193, 0.111, 0.301, -0.437, -0.204, -0.274, -0.045, -0.963, 0.54, -0.502, -0.901, -0.264, -0.275, -0.774, 0.156, 0.151, 0.292, -0.771, 0.16, -0.606, -0.056, 0.969, -0.463, -0.674, 0.194, -0.977, 0.107, -0.614, -0.287, 0.557, 0.064, 0.058, -0.222, 0.147, -0.634, 0.117, 0.393, -0.24, 0.661, 0.025, -0.637, 0.603, 0.682, 0.633, 0.402, 0.005, -0.718, 0.035, -0.626, -0.851, -0.532, -0.898, -0.662, 0.944, 0.265, 0.243, -0.424, -0.639, 0.529, 0.416, -0.382, -0.135, 0.948, -0.567, -0.843, -0.806, 0.321, 0.695, -0.421, -0.357, -0.432, 0.911, 0.029, -0.909, 0.306, 0.497, 0.815, -0.434, 0.688, 0.881], [0.07, 0.453, 0.024, -0.343, 0.757, -0.163, 0.824, -0.919, -0.799, 0.377, 0.752, 0.445, 0.284, 0.517, 0.974, 0.755, -0.431, -0.356, 0.997, 0.765, -0.18, -0.771, 0.739, -0.253, 0.33, 0.644, 0.299, -0.464, -0.806, 0.394, 0.777, 0.208, 0.471, -0.684, 0.232, -0.635, -0.529, 0.343, -0.729, -0.653, -0.886, 0.266, 0.552, 0.568, -0.995, -0.487, 0.011, 0.276, -0.181, -0.952, -0.72, -0.689, 0.711, 0.328, 0.341, -0.886, -0.001, 0.144, -0.23, 0.545, 0.949, -0.535, 0.14, 0.768, -0.39, 0.084, -0.877, 0.166, 0.733, 0.198, -0.183, -0.48, 0.442, 0.354, 0.032, 0.655, 0.366, -0.395, -0.366, 0.143, 0.724, 0.923, -0.861, 0.005, -0.192, -0.569, 0.762, -0.651, -0.678, -0.033, 0.48, -0.965, 0.787, -0.799, 0.692, -0.705, 0.169, -0.657, -0.114, -0.446, 0.263, -0.396, 0.431, 0.842, 0.2, -0.96, -0.223, 0.57, -0.301, 0.698, 0.613, 0.712, -0.617, -0.192, -0.873, -0.01, 0.907, -0.349, -0.076, -0.235, -0.943, 0.19, -0.417, -0.849, -0.99, -0.504, -0.234, -0.096, -0.695, 0.013, -0.011, -0.827, -0.515, 0.413, 0.287, -0.169, 0.571, -0.713, 0.223, -0.239, 0.092, -0.378, 0.948, -0.661, -0.73, 0.97, 0.884, 0.083, -0.848, 0.631, -0.556, -0.275, 0.678, 0.942, 0.069, -0.438, 0.444, 0.046, -0.02, 0.129, 0.573, -0.284, -0.159, -0.336, -0.925, -0.377, -0.394, -0.284, -0.583, -0.197, 0.903, 0.788, 0.8, -0.948, -0.758, -0.009, 0.223, 0.25, 0.925, 0.42, -0.144, -0.485, 0.344, -0.028, -0.337, 0.805, -0.164, 0.8, 0.569, -0.299, 0.338, -0.116, 0.823, 0.302, 0.298, -0.203, 0.21, -0.433, -0.046, 0.971, 0.065, -0.754, 0.418, -0.64, -0.145, 0.342, 0.923, 0.421, 0.368, 0.367, 0.756, 0.544, 0.201, 0.417, -0.568, -0.509, -0.493, 0.709, -0.554, 0.436, -0.749, -0.573, -0.408, 0.487, -0.78, 0.684, -0.046, 0.227, -0.709, 0.513, 0.589, -0.055, -0.7, -0.098, 0.599, -0.191, -0.175, -0.537, 0.875, -0.869, 0.525, 0.937, 0.392, -0.825, 0.957, 0.64, -0.331, 0.507, 0.263, 0.328, 0.513, -0.43, 0.946, 0.519, -0.106, -0.59, 0.763, -0.817, -0.842, 0.465, -0.554, 0.235, 0.959, 0.281, 0.393, 0.934, -0.833, -0.234, 0.35, 0.073, -0.523, 0.849, -0.671, -0.15, 0.898, -0.614, 0.602, 0.018, 0.854, 0.665, 0.342, -0.029, 0.691, -0.394, 0.841, -0.348, 0.153, -0.349, -0.055, -0.139, -0.207, 0.2, 0.352, 0.28, 0.139, -0.812, -0.128, 0.528, -0.578, 0.931, -0.214, -0.92, 0.473, 0.017, -0.269, 0.787, 0.932, -0.435, -0.133, -0.48, -0.294, 0.296, -0.247, -0.789, 0.632, 0.237, -0.688, -0.704, 0.545, -0.807, -0.318, -0.845, 0.325, 0.566, -0.605, -0.032, -0.113, -0.101, -0.091, -0.842, -0.676, -0.764, 0.088, 0.132, -0.977, -0.719, 0.894, -0.254, -0.139, -0.574, -0.035, -0.284, -0.889, 0.076, -0.772, -0.089, 0.738, -0.344, 0.703, 0.206, 0.148, -0.923, 0.708, 0.502, 0.884, -0.245, -0.619, -0.694, 0.886, 0.481, 0.357, 0.731, 0.146, 0.529, 0.969, -0.748, 0.781, -0.007, 0.828, -0.101, 0.965, -0.174, 0.992, 0.297, 0.782, 0.439, 0.924, 0.441, -0.83, -0.84, -0.196, 0.399, 0.01, -0.891, -0.914, -0.135, 0.648, -0.967, 0.11, -0.44, 0.006, -0.456, -0.475, 0.436, -0.696, 0.639, 0.298, -0.624, -0.036, 0.757, 0.065, 0.272, -0.351, 0.514, -0.182, -0.288, -0.675, -0.298, -0.721, 0.715, 0.302, -0.4, -0.041, 0.269, 0.644, -0.735, 0.49, -0.848, 0.091, -0.245, -0.336, 0.274, 0.06, 0.194, 0.642, -0.557, 0.146, 0.514, 0.698, -0.32, -0.547, 0.943, -0.069, -0.366, -0.383, 0.874, -0.5, -0.098, -0.397, -0.655, 0.036, -0.119, 0.597, -0.431, -0.732, -0.763, -0.235, -0.589, 0.724, 0.285, 0.71, 0.276, -0.41, 0.531, -0.479, -0.087, -0.69, 0.426, 0.85, 0.215, 0.584, 0.012, -0.42, -0.493, 0.938, -0.472, 0.745, -0.887, 0.506, 0.191, -0.995, -0.17, 0.635, 0.715, 0.688, -0.768, -0.433, 0.802, 0.106, 0.851, -0.493, -0.83, -0.359, -0.525, 0.841, 0.09, 0.658, -0.79, -0.322, 0.638, 0.998, 0.374, 0.281, -0.172, 0.849, -0.797, 0.665, 0.738, -0.595, -0.455, -0.544, -0.862, 0.404, -0.434, 0.615, 0.217, -0.937, 0.944, 0.004, 0.538, -0.24, -0.573, -0.321, 0.154, 0.663, -0.141, 0.389, 0.662, 0.359, -0.971, -0.618, 0.56, 0.542, 0.362, -0.282, 0.062, 0.841, -0.317, 0.157, -0.212, -0.91, -0.335, 0.727, -0.557, -0.068, 0.776, -0.096, -0.848, 0.985, 0.302, 0.176, 0.68, -0.139, 0.54, 0.278, -0.726, -0.11, 0.593, -0.075, 0.626, 0.59, -0.817, 0.143, -0.541, 0.747, -0.39, 0.38, -0.988, -0.863, 0.467, -0.694, 0.55, -0.663, 0.338, 0.941, 0.401, -0.661, 0.398, 0.151, -0.353, 0.001, 0.829, -0.186, 0.206, 0.606, 0.077, 0.371, -0.085, -0.943, 0.277, 0.73, 0.828, 0.71, -0.84, 0.591, 0.013, 0.94, -0.994, 0.408, -0.058, -0.709, -0.325, 0.812, 0.936, -0.732, 0.627, 0.359, -0.01, 0.26, -0.253, 0.943, 0.329, 0.99, -0.831, 0.323, -0.12, -0.026, 0.65, -0.507, -0.545, 0.039, 0.662, 0.692, 0.116, 0.731, 0.847, -0.434, 0.332, -0.341, 0.04, -0.747, -0.268, -0.064, -0.54, 0.964], [0.098, 0.333, -0.196, 0.809, -0.155, -0.753, -0.583, -0.462, 0.794, -0.275, 0.759, -0.473, 0.128, 0.932, 0.31, -0.132, -0.785, 0.163, -0.334, -0.344, -0.946, 0.161, 0.759, -0.737, 0.768, -0.548, 0.143, -0.775, 0.465, -0.001, -0.857, -0.331, 0.966, -0.71, -0.177, 0.936, 0.005, 0.372, 0.022, -0.17, -0.342, -0.647, 0.68, 0.155, 0.618, 0.481, 0.98, 0.393, 0.625, -0.775, 0.617, 0.269, 0.97, -0.215, 0.507, -0.684, -0.321, 0.901, 0.688, 0.412, 0.901, 0.776, -0.907, 0.568, 0.731, -0.155, -0.653, 0.866, -0.147, -0.284, -0.082, 0.043, -0.686, -0.508, 0.373, 0.993, -0.531, -0.935, 0.052, -0.177, 0.439, 0.658, -0.629, 0.145, -0.723, 0.299, 0.595, 0.351, 0.124, -0.572, 0.61, 0.135, -0.879, 0.045, 0.526, -0.507, -0.066, -0.426, 0.438, -0.713, 0.952, -0.001, -0.835, -0.085, -0.678, -0.264, -0.19, -0.051, -0.337, 0.608, -0.591, -0.372, -0.549, 0.081, 0.883, 0.432, -0.212, -0.586, -0.133, 0.369, 0.028, 0.473, 0.337, 0.13, 0.961, 0.717, -0.339, -0.683, -0.361, 0.077, 0.671, -0.143, 0.991, -0.128, -0.735, 0.334, -0.961, 0.575, 0.341, -0.7, -0.464, 0.302, -0.564, 0.042, 0.751, -0.217, 0.108, 0.183, 0.441, 0.661, -0.222, 0.942, -0.764, 0.398, -0.221, 0.777, -0.309, 0.654, -0.376, -0.162, -0.779, 0.106, 0.774, -0.463, -0.71, -0.037, 0.649, -0.942, -0.099, -0.468, -0.961, -0.015, 0.14, 0.65, 0.685, 0.511, -0.59, -0.129, 0.638, -0.442, 0.503, 0.742, 0.636, -0.382, 0.664, -0.65, -0.495, 0.769, -0.53, -0.846, -0.685, 0.733, 0.865, -0.464, 0.581, 0.154, -0.84, -0.995, 0.681, -0.195, 0.214, 0.263, 0.764, 0.67, -0.717, -0.058, -0.472, -0.443, 0.302, -0.348, 0.142, -0.354, 0.568, -0.411, -0.982, 0.857, 0.82, 0.964, 0.295, -0.415, -0.488, -0.985, -0.6, -0.997, 0.311, -0.351, -0.836, -0.064, -0.33, 0.683, 0.682, -0.843, -0.287, 0.16, -0.557, -0.717, 0.995, -0.095, 0.784, -0.395, -0.639, 0.631, 0.66, 0.192, -0.891, -0.462, -0.957, 0.12, -0.688, -0.487, -0.365, -0.582, -0.578, 0.018, -0.863, -0.767, -0.159, 0.211, 0.421, -0.3, 0.984, -0.788, -0.509, -0.677, 0.322, -0.782, -0.939, -0.663, 0.324, 0.692, 0.226, -0.804, -0.481, -0.176, -0.756, 0.721, 0.203, 0.045, 0.703, -0.767, -0.386, -0.195, -0.653, -0.898, -0.091, 0.38, -0.932, -0.979, -0.312, -0.039, -0.89, -0.248, 0.081, 0.55, -0.773, -0.186, -0.335, 0.351, 0.605, 0.091, -0.427, 0.211, 0.723, -0.495, -0.634, -0.756, -0.95, 0.966, 0.954, 0.417, -0.327, -0.813, -0.718, 0.652, 0.185, 0.924, -0.088, 0.206, 0.203, 0.64, 0.725, -0.658, -0.293, -0.385, 0.813, 0.884, 0.155, -0.274, 0.91, -0.387, -0.009, 0.629, 0.803, -0.906, 0.602, 0.481, 0.118, -0.557, 0.046, 0.502, -0.919, -0.421, 0.975, 0.973, 0.448, 0.136, 0.758, -0.968, 0.3, 0.4, -0.732, -0.797, -0.276, -0.43, -0.03, -0.271, 0.3, 0.977, 0.087, 0.94, 0.354, -0.296, -0.405, 0.001, -0.15, -0.752, 0.144, 0.39, 0.859, 0.827, -0.006, -0.067, 0.492, 0.905, 0.449, -0.187, -0.293, 0.705, 0.392, 0.545, -0.696, -0.379, -0.177, -0.312, 0.917, 0.816, -0.042, -0.789, 0.394, 0.244, 0.713, 0.051, -0.734, 0.623, -0.59, 0.831, -0.196, -0.349, -0.113, -0.078, 0.535, -0.801, 0.719, -0.202, -0.627, -0.214, 0.857, 0.286, 0.48, 0.05, 0.032, 0.627, 0.625, 0.896, -0.146, 0.548, 0.828, 0.252, -0.661, 0.896, 0.995, 0.664, -0.621, 0.632, -0.226, 0.691, 0.859, -0.002, -0.683, 0.98, -0.18, 0.181, -0.758, -0.761, -0.72, 0.834, 0.533, -0.437, -0.183, 0.038, 0.139, -0.838, 0.928, -0.97, -0.604, -0.765, -0.57, -0.776, -0.961, 0.901, 0.572, -0.947, 0.612, 0.975, 0.183, -0.136, -0.123, -0.806, 0.699, -0.335, 0.216, -0.718, 0.817, -0.833, 0.173, -0.217, 0.14, -0.759, 0.285, -0.916, -0.281, -0.603, 0.811, 0.665, -0.871, 0.792, -0.053, 0.197, 0.112, -0.241, 0.192, -0.594, 0.62, 0.006, -0.837, 0.537, -0.758, -0.053, -0.33, 0.814, 0.563, 0.024, 0.665, -0.368, -0.073, 0.311, 0.121, -0.444, 0.029, -0.976, 0.315, -0.297, 0.375, -0.998, 0.11, 0.035, -0.044, 0.245, 0.602, -0.766, -0.953, -0.005, -0.287, 0.464, -0.022, -0.031, 0.266, -0.594, -0.848, 0.584, 0.977, 0.645, -0.997, -0.037, -0.502, 0.827, -0.082, -0.832, 0.969, -0.238, 0.795, -0.382, -0.842, 0.413, -0.813, 0.284, 0.072, 0.855, -0.507, -0.239, -0.698, -0.074, -0.595, -0.633, -0.999, 0.257, 0.621, 0.649, -0.711, -0.715, -0.148, -0.255, -0.566, 0.444, -0.851, 0.919, 0.553, 0.793, 0.45, -0.426, -0.726, -0.766, -0.994, 0.211, 0.233, -0.755, 0.509, -0.265, -0.661, -0.147, -0.537, -0.263, -0.582, -0.433, 0.027, 0.818, -0.533, -0.82, 0.434, 0.005, 0.006, -0.935, 0.862, 0.144, -0.119, -0.493, -0.841, 0.544, 0.319, -0.494, 0.988, -0.521, 0.666, -0.733, 0.052, 0.658, -0.023, -0.505, -0.137, -0.779, 0.074, 0.86, 0.245, 0.206, -0.184, -0.645, 0.399, -0.488, -0.319, 0.439, 0.42, 0.552, -0.285, -0.115, 0.661, 0.172, 0.317, 0.69, -0.399, 0.796, 0.894, 0.525, -0.047, -0.264, -0.25], [0.718, -0.676, -0.211, -0.028, -0.304, -0.739, 0.573, 0.871, -0.39, 0.445, -0.514, 0.496, 0.0, 0.433, 0.57, 0.627, -0.405, -0.905, 0.36, 0.676, 0.158, 0.664, -0.433, -0.732, 0.677, -0.45, 0.236, -0.089, -0.824, -0.808, 0.07, -0.695, 0.841, -0.146, 0.735, -0.945, -0.765, -0.184, 0.136, 0.93, 0.143, 0.893, -0.512, 0.99, 0.873, 0.881, 0.293, -0.156, 0.594, -0.274, -0.23, -0.806, -0.671, -0.215, -0.947, -0.498, -0.697, -0.79, -0.638, 0.21, -0.329, -0.933, -0.904, 0.226, -0.461, 0.108, 0.62, -0.446, -0.505, -0.364, -0.243, -0.262, 0.807, 0.067, 0.258, 0.412, -0.047, -0.518, -0.074, 0.185, -0.749, 0.415, 0.37, -0.549, -0.94, -0.114, -0.415, -0.254, -0.234, -0.995, 0.707, 0.908, 0.863, 0.941, 0.987, -0.888, 0.889, -0.834, 0.767, -0.41, 0.583, 0.955, -0.977, 0.948, -0.906, -0.55, 0.138, 0.949, -0.807, 0.211, -0.542, 0.514, -0.648, 0.232, 0.089, 0.584, 0.626, -0.825, -0.209, 0.39, -0.736, -0.742, 0.199, 0.937, -0.221, -0.011, 0.98, -0.056, -0.047, -0.559, 0.381, 0.157, 0.884, 0.646, 0.23, 0.405, 0.655, 0.779, -0.669, 0.845, 0.611, -0.02, -0.018, -0.232, -0.573, 0.693, 0.475, -0.444, 0.812, -0.785, -0.378, -0.722, -0.946, -0.415, 0.361, 0.891, 0.373, -0.51, 0.17, 0.039, 0.06, -0.296, -0.618, -0.405, -0.277, 0.74, -0.447, 0.817, -0.243, 0.556, 0.993, 0.951, 0.419, 0.386, 0.486, 0.993, 0.541, 0.065, 0.682, -0.326, 0.601, 0.853, 0.986, -0.057, 0.339, 0.468, 0.414, -0.224, -0.992, 0.089, -0.854, -0.115, -0.389, 0.502, 0.946, -0.517, 0.999, 0.319, 0.116, 0.169, 0.11, 0.367, -0.181, 0.228, 0.119, -0.485, -0.156, 0.329, -0.201, 0.568, -0.109, 0.58, -0.946, 0.308, -0.435, 0.476, 0.632, 0.759, 0.451, -0.22, -0.64, 0.456, -0.278, 0.519, 0.17, -0.452, -0.084, -0.414, 0.57, 0.937, -0.174, -0.06, -0.168, -0.715, 0.681, 0.089, 0.682, 0.794, 0.46, -0.42, 0.982, 0.439, -0.505, -0.99, 0.621, -0.004, -0.363, -0.81, 0.677, -0.027, 0.892, -0.281, 0.196, -0.31, -0.911, 0.232, 0.669, -0.358, -0.141, 0.253, 0.963, -0.985, -0.729, 0.462, 0.242, 0.057, 0.8, -0.98, -0.314, -0.928, -0.997, 0.006, 0.608, -0.809, 0.231, 0.469, -0.264, 0.055, 0.598, 0.204, -0.22, 0.686, 0.918, -0.101, -0.376, 0.492, -0.129, 0.884, 0.034, -0.786, 0.895, -0.437, -0.47, -0.089, -0.477, -0.022, 0.477, -0.473, 0.743, -0.792, -0.194, 0.792, -0.064, -0.709, -0.971, 0.235, 0.022, -0.83, -0.923, 0.704, -0.687, 0.62, -0.46, -0.55, 0.983, -0.741, -0.043, 0.297, -0.233, 0.765, -0.182, -0.547, -0.731, 0.091, 0.16, 0.703, 0.67, -0.809, -0.535, 0.079, 0.959, -0.933, -0.839, 0.381, 0.055, -0.806, -0.592, 0.863, -0.697, -0.708, -0.302, 0.473, -0.718, 0.79, 0.888, 0.317, -0.25, 0.584, 0.641, -0.308, 0.98, 0.367, 0.159, -0.061, 0.298, 0.315, -0.646, -0.956, 0.04, 0.308, 0.354, -0.96, 0.93, 0.089, 0.425, -0.906, 0.189, 0.981, -0.4, 0.91, -0.176, 0.251, 0.839, -0.985, 0.733, -0.996, -0.356, -0.782, -0.878, -0.395, -0.72, 0.728, -0.74, 0.506, -0.839, -0.114, 0.338, -0.341, -0.101, 0.23, -0.827, -0.085, -0.912, 0.805, -0.619, -0.12, -0.632, -0.997, 0.477, 0.914, -0.976, 0.764, 0.055, 0.066, 0.771, 0.524, -0.376, -0.984, -0.152, -0.313, 0.443, 0.203, -0.534, 0.842, 0.523, 0.734, 0.983, -0.772, -0.702, 0.806, -0.507, 0.28, 0.927, 0.736, -0.292, 0.857, 0.413, -0.765, -0.218, -0.367, 0.78, -0.904, 0.041, -0.55, -0.507, 0.928, 0.991, 0.439, -0.12, -0.324, -0.944, -0.231, 0.38, 0.105, -0.203, -0.839, -0.403, 0.468, 0.294, 0.333, -0.722, -0.912, 0.414, -0.575, -0.756, 0.308, 0.278, 0.619, -0.971, -0.788, -0.196, 0.673, 0.565, 0.789, -0.163, 0.289, 0.222, 0.84, 0.006, 0.159, -0.416, 0.7, 0.536, -0.941, -0.816, -0.011, 0.791, 0.869, -0.879, 0.762, 0.705, -0.289, -0.555, 0.219, -0.73, -0.142, 0.184, 0.261, 0.488, 0.298, 0.411, -0.55, -0.67, 0.006, 0.639, 0.107, -0.881, -0.118, 0.358, 0.913, 0.602, -0.471, 0.943, 0.264, 0.533, -0.321, 0.925, -0.716, 0.07, -0.505, 0.512, -0.203, -0.739, 0.636, -0.519, -0.106, 0.324, -0.682, -0.733, -0.725, -0.749, 0.07, -0.443, 0.398, -0.924, -0.914, 0.327, -0.216, 0.373, 0.832, -0.961, 0.477, -0.792, -0.081, -0.141, 0.26, -0.984, -0.878, 0.876, -0.098, -0.511, 0.903, 0.793, 0.682, -0.516, 0.998, 0.179, -0.233, 0.818, 0.845, -0.05, 0.714, 0.597, -0.231, -0.905, -0.555, 0.053, 0.477, 0.143, 0.721, 0.761, 0.059, -0.551, 0.029, -0.923, -0.153, 0.724, 0.911, -0.215, -0.919, 0.302, -0.946, 0.006, -0.337, -0.386, -0.168, -0.964, 0.396, -0.729, 0.392, 0.344, 0.884, 0.648, -0.944, -0.729, -0.27, 0.171, 0.35, -0.954, -0.784, 0.123, -0.39, -0.829, 0.54, 0.447, 0.38, 0.749, 0.258, 0.877, -0.397, 0.196, 0.255, 0.519, 0.686, 0.932, 0.095, -0.297, -0.137, -0.384, -0.587, -0.568, 0.843, 0.992, -0.446, 0.697, 0.606, -0.584, -0.495, -0.056, -0.016, 0.516, 0.647, -0.335, 0.839, 0.615], [0.075, -0.414, -0.022, -0.804, -0.773, 0.684, -0.388, 0.797, 0.433, -0.657, -0.815, -0.025, 0.479, 0.239, -0.97, -0.311, -0.969, -0.7, -0.507, 0.417, 0.563, -0.658, 0.326, 0.091, -0.086, 0.057, -0.653, 0.214, 0.599, -0.419, -0.204, 0.608, 0.241, 0.841, 0.715, 0.019, -0.943, 0.058, 0.08, -0.093, 0.673, 0.562, 0.84, -0.127, -0.624, -0.567, 0.372, -0.759, 0.389, 0.378, 0.877, 0.601, 0.935, 0.749, -0.044, -0.925, -0.504, -0.999, 0.014, 0.46, -0.411, -0.362, -0.885, -0.901, -0.215, -0.737, -0.365, -0.289, -0.984, 0.344, -0.808, 0.522, -0.332, -0.665, 0.716, -0.825, 0.053, -0.49, 0.09, 0.444, 0.04, 0.597, 0.622, 0.493, 0.821, -0.17, 0.183, 0.35, -0.095, 0.664, 0.925, 0.729, 0.535, 0.014, -0.178, -0.552, 0.646, -0.825, -0.67, 0.785, -0.321, -0.838, 0.347, 0.47, 0.836, 0.607, 0.016, -0.453, -0.715, -0.24, 0.794, 0.131, -0.899, 0.023, -0.656, 0.22, 0.641, -0.257, 0.602, -0.658, -0.911, 0.622, 0.047, -0.208, -0.194, 0.389, -0.391, -0.324, -0.84, -0.342, -0.528, 0.588, -0.54, -0.784, -0.934, 0.988, -0.273, -0.013, 0.879, 0.779, 0.059, -0.826, 0.759, -0.99, 0.015, -0.086, 0.513, 0.752, 0.065, 0.072, -0.038, 0.614, -0.935, -0.306, -0.808, 0.441, -0.151, 0.511, 0.0, 0.056, -0.661, -0.508, 0.128, -0.016, 0.878, -0.177, 0.286, 0.215, -0.219, -0.93, -0.911, 0.559, -0.464, 0.037, 0.656, -0.3, 0.397, 0.724, 0.451, 0.937, -0.991, 0.65, -0.513, -0.983, -0.432, 0.499, -0.275, 0.378, -0.433, -0.582, -0.292, -0.307, 0.634, 0.156, 0.162, 0.323, -0.562, 0.758, 0.602, -0.283, 0.446, 0.914, 0.262, 0.923, -0.494, -0.432, 0.755, 0.364, -0.088, 0.883, 0.75, 0.664, -0.457, 0.114, -0.447, -0.027, 0.36, -0.832, -0.718, -0.849, 0.207, 0.717, -0.813, 0.802, 0.138, -0.359, 0.631, 0.467, -0.398, 0.252, -0.634, -0.009, -0.233, -0.74, 0.818, 0.241, -0.067, 0.646, 0.203, -0.786, -0.558, 0.288, 0.74, -0.374, -0.918, 0.138, -0.835, -0.457, -0.809, -0.716, 0.907, 0.191, 0.891, 0.303, -0.463, -0.443, 0.436, 0.155, 0.26, 0.29, -0.317, -0.381, -0.095, 0.305, -0.424, -0.773, 0.313, 0.795, -0.002, -0.83, 0.036, -0.29, -0.139, -0.39, 0.573, 0.341, 0.349, 0.297, 0.147, 0.802, 0.256, -0.543, -0.788, 0.403, 0.847, -0.22, -0.023, -0.328, 0.596, 0.644, -0.532, 0.378, 0.111, -0.004, -0.888, -0.892, -0.764, -0.763, 0.324, 0.976, 0.098, -0.947, 0.316, 0.87, 0.797, 0.7, 0.476, 0.136, -0.97, 0.034, -0.242, 0.153, 0.604, -0.697, 0.18, -0.727, -0.302, 0.948, -0.791, -0.215, 0.008, -0.269, 0.421, 0.102, -0.162, 0.052, -0.114, -0.128, 0.154, 0.553, 0.901, 0.528, 0.703, -0.868, 0.409, -0.162, 0.861, -0.401, -0.641, 0.693, -0.824, 0.237, -0.839, 0.334, -0.366, 0.257, -0.772, -0.919, -0.321, 0.431, 0.41, 0.799, 0.088, 0.328, 0.168, -0.979, 0.579, -0.161, 0.322, 0.106, -0.577, -0.428, 0.253, 0.015, -0.208, 0.653, 0.612, 0.696, 0.145, -0.246, -0.08, 0.284, -0.517, -0.167, -0.407, 0.591, 0.31, -0.939, 0.879, -0.839, 0.674, -0.275, 0.083, -0.904, -0.257, 0.029, -0.881, -0.82, 0.301, 0.766, -0.035, -0.66, 0.579, -0.582, 0.595, -0.637, -0.98, -0.101, -0.524, 0.881, -0.647, 0.129, -0.45, -0.067, 0.01, -0.852, 0.892, -0.005, -0.364, 0.11, 0.64, -0.969, -0.857, 0.752, 0.554, 0.011, -0.337, 0.889, 0.251, -0.767, -0.055, -0.47, 0.789, -0.009, -0.112, 0.15, 0.668, 0.642, 0.884, -0.074, 0.548, 0.275, 0.761, 0.347, 0.324, -0.513, -0.552, -0.571, -0.641, 0.44, -0.35, 0.741, 0.573, 0.211, 0.619, 0.519, 0.308, 0.648, 0.512, -0.938, 0.254, -0.376, -0.361, 0.236, -0.505, -0.733, -0.109, -0.427, -0.857, -0.689, 0.105, 0.135, -0.343, 0.128, 0.534, -0.865, -0.869, 0.922, 0.974, -0.315, 0.466, 0.61, 0.613, -0.715, 0.998, -0.861, 0.011, -0.227, -0.366, 0.652, 0.812, 0.803, 0.99, -0.291, -0.945, 0.568, 0.232, -0.594, -0.167, -0.752, -0.035, 0.088, 0.66, -0.386, 0.116, 0.401, -0.338, -0.176, -0.721, 0.901, 0.752, -0.081, -0.317, -0.803, 0.801, 0.128, 0.019, 0.894, 0.484, 0.606, -0.025, -0.71, 0.922, 0.029, 0.04, -0.606, -0.459, 0.888, -0.946, 0.531, 0.644, -0.559, -0.926, -0.875, 0.289, -0.245, 0.56, 0.758, 0.208, 0.939, 0.242, -0.084, -0.843, -0.203, -0.24, -0.296, 0.856, -0.674, -0.294, -0.167, 0.605, 0.642, -0.368, -0.66, -0.959, 0.374, 0.825, 0.651, -0.198, 0.922, 0.561, 0.524, -0.356, -0.233, 0.992, -0.674, -0.754, -0.52, 0.46, 0.638, 0.995, 0.13, 0.626, 0.648, -0.293, 0.805, -0.979, -0.445, 0.003, 0.806, 0.014, 0.085, 0.305, -0.951, 0.888, 0.258, 0.796, 0.897, 0.595, 0.07, 0.026, -0.017, 0.094, -0.346, 0.692, 0.088, -0.695, -0.804, -0.746, -0.962, 0.642, -0.957, 0.88, 0.729, 0.857, -0.771, 0.651, 0.797, 0.674, 0.603, -0.916, -0.64, 0.719, -0.611, -0.611, -0.049, 0.549, 0.458, 0.086, -0.413, -0.793, 0.971, -0.73, -0.911, 0.864, -0.563, -0.241, 0.968, 0.354, 0.115, -0.259, -0.478, 0.095, 0.603, -0.867], [-0.705, 0.852, -0.769, -0.422, -0.61, -0.466, -0.355, 0.215, -0.725, 0.091, 0.508, 0.816, 0.238, -0.348, 0.971, 0.288, -0.123, -0.2, -0.842, 0.841, -0.749, 0.527, 0.378, 0.22, 0.468, -0.283, 0.209, 0.977, 0.449, -0.707, 0.89, -0.017, 0.47, -0.463, 0.429, -0.533, -0.206, -0.983, 0.278, -0.002, 0.005, 0.372, -0.01, -0.936, -0.556, -0.587, -0.04, 0.667, -0.351, -0.279, -0.519, -0.726, 0.458, -0.786, 0.218, -0.968, 0.097, -0.203, 0.558, 0.088, -0.29, 0.887, 0.27, 0.239, -0.637, -0.567, 0.27, -0.613, -0.737, 0.225, 0.099, 0.981, 0.294, 0.229, -0.627, 0.111, -0.91, -0.513, 0.494, -0.193, -0.853, -0.368, 0.665, -0.259, 0.862, 0.163, 0.807, -0.419, 0.007, 0.24, -0.044, -0.845, -0.476, 0.338, -0.235, -0.58, -0.879, 0.104, -0.406, 0.897, 0.407, -0.347, -0.683, -0.874, 0.785, -0.416, -0.079, -0.486, -0.312, -0.735, 0.813, 0.479, -0.679, 0.764, -0.485, -0.774, -0.296, -0.152, -0.69, -0.939, -0.636, 0.287, 0.015, -0.047, -0.98, 0.51, -0.905, 0.381, -0.191, -0.728, 0.388, 0.106, 0.283, -0.997, -0.479, -0.486, -0.338, 0.261, 0.071, -0.547, -0.238, 0.087, -0.533, -0.603, -0.619, 0.308, -0.092, -0.093, 0.92, 0.491, 0.617, -0.096, 0.971, -0.086, -0.794, -0.978, 0.44, -0.443, 0.325, -0.623, 0.445, -0.075, -0.143, 0.411, 0.353, -0.947, 0.502, 0.2, -0.137, -0.949, -0.243, -0.349, -0.602, 0.252, -0.612, -0.288, -0.081, -0.692, -0.236, 0.881, 0.01, 0.67, 0.275, 0.538, 0.78, -0.237, 0.736, -0.588, 0.074, -0.155, 0.296, -0.629, 0.389, 0.868, -0.94, -0.065, -0.045, -0.769, -0.854, 0.142, 0.86, 0.059, -0.025, 0.732, 0.539, -0.517, 0.318, 0.004, -0.601, -0.296, -0.119, -0.985, 0.447, 0.804, -0.124, -0.759, -0.372, 0.523, 0.272, 0.782, 0.805, 0.767, -0.909, -0.798, -0.998, -0.139, 0.126, 0.527, -0.795, 0.556, -0.538, 0.364, -0.039, -0.368, -0.044, -0.456, 0.618, -0.752, 0.811, -0.293, 0.79, 0.686, -0.821, -0.229, 0.372, 0.29, 0.107, 0.365, 0.63, 0.474, -0.222, 0.704, 0.072, 0.079, 0.271, -0.768, 0.617, -0.933, -0.894, -0.065, 0.096, 0.457, -0.427, 0.014, 0.161, 0.109, 0.817, 0.034, -0.794, -0.854, 0.892, 0.486, 0.051, -0.429, 0.353, 0.737, 0.628, -0.993, 0.069, 0.067, 0.04, -0.421, -0.709, -0.962, 0.041, -0.259, -0.523, 0.871, -0.494, 0.076, 0.089, 0.24, -0.394, -0.083, -0.623, -0.734, -0.808, 0.181, 0.531, -0.864, -0.858, -0.398, 0.59, 0.46, 0.89, -0.361, 0.039, -0.255, 0.925, 0.739, 0.494, 0.336, 0.13, -0.068, 0.103, 0.202, -0.04, -0.768, -0.687, 0.21, -0.194, -0.193, -0.879, -0.816, 0.28, 0.993, -0.018, 0.916, 0.266, 0.156, 0.324, -0.229, 0.959, -0.05, 0.695, 0.278, -0.727, 0.441, -0.279, -0.299, 0.89, 0.506, 0.499, 0.095, -0.75, -0.673, 0.195, 0.604, -0.492, -0.315, 0.792, -0.784, 0.886, -0.902, -0.918, -0.908, 0.421, 0.877, 0.789, -0.78, 0.621, 0.129, -0.366, 0.518, -0.884, 0.274, 0.124, -0.724, 0.882, 0.524, -0.439, -0.717, -0.416, -0.995, 0.587, 0.417, -0.401, -0.453, 0.188, 0.269, 0.945, 0.489, -0.208, -0.002, -0.857, 0.462, 0.496, 0.131, 0.466, 0.533, 0.167, 0.332, 0.515, -0.858, 0.932, 0.893, -0.392, -0.564, 0.285, 0.098, 0.775, -0.358, -0.992, -0.043, 0.232, 0.348, -0.849, 0.271, 0.104, -0.814, 0.38, -0.433, -0.906, -0.637, -0.272, -0.009, 0.467, -0.846, 0.436, 0.427, 0.702, -0.056, -0.848, 0.823, -0.781, 0.74, 0.035, -0.433, -0.309, -0.257, 0.409, -0.343, 0.372, -0.529, 0.368, -0.724, 0.527, -0.236, -0.292, 0.192, 0.977, -0.699, 0.588, -0.773, -0.367, 0.198, 0.544, 0.122, 0.841, 0.395, 0.01, 0.955, 0.38, 0.668, 0.094, 0.811, 0.159, 0.028, -0.889, -0.081, 0.797, -0.352, -0.02, -0.014, 0.02, -0.308, 0.776, 0.675, 0.761, -0.462, 0.709, -0.178, 0.936, 0.763, 0.263, 0.167, 0.79, -0.091, -0.064, -0.556, -0.495, 0.942, 0.569, 0.518, -0.039, 0.286, -0.455, -0.703, 0.862, 0.18, 0.371, 0.561, 0.08, 0.752, -0.806, -0.948, -0.215, 0.031, -0.587, -0.486, 0.981, 0.48, 0.186, 0.797, 0.271, 0.855, -0.551, -0.301, -0.067, 0.928, 0.152, 0.582, -0.152, 0.247, -0.158, -0.653, 0.536, 0.586, -0.705, -0.11, -0.289, -0.956, -0.194, -0.037, 0.791, 0.547, -0.369, -0.46, 0.843, 0.951, -0.894, 0.791, 0.014, -0.571, -0.976, 0.1, -0.013, -0.046, 0.195, 0.153, -0.971, -0.959, 0.66, -0.411, 0.163, -0.311, 0.134, 0.599, 0.707, 0.929, 0.751, -0.591, -0.591, 0.331, -0.557, 0.883, 0.051, -0.533, -0.595, -0.184, -0.494, 0.91, -0.479, -0.421, 0.311, 0.607, 0.248, -0.454, -0.92, -0.382, -0.208, 0.766, -0.817, 0.631, -0.644, -0.086, 0.879, -0.453, -0.755, 0.993, -0.083, 0.336, -0.859, 0.627, -0.377, -0.372, -0.289, 0.761, 0.6, 0.813, 0.568, -0.519, -0.731, 0.393, 0.486, 0.115, -0.109, -0.805, -0.931, 0.28, 0.208, -0.228, -0.97, -0.551, -0.667, 0.331, 0.598, 0.987, 0.027, 0.074, 0.767, 0.725, -0.961, 0.351, -0.933, 0.427, -0.017, -0.968, 0.177, 0.448, -0.836, -0.212, 0.056, -0.388, 0.911], [0.638, 0.919, -0.261, -0.398, 0.472, 0.181, -0.501, -0.44, 0.701, -0.762, -0.785, 0.022, -0.947, -0.595, -0.611, -0.445, -0.489, 0.008, 0.144, -0.397, 0.378, 0.163, -0.595, 0.734, -0.993, 0.452, -0.361, -0.969, -0.912, -0.558, 0.745, 0.785, 0.42, 0.207, -0.033, -0.505, 0.852, -0.522, 0.953, 0.057, 0.122, 0.279, -0.608, -0.188, 0.363, 0.563, 0.94, 0.039, 0.177, -0.944, -0.983, 0.533, -0.405, -0.433, -0.092, -0.65, -0.473, -0.239, 0.434, -0.08, 0.569, -0.93, -0.081, -0.156, 0.194, -0.246, 0.75, 0.545, 0.899, -0.713, 0.347, 0.648, 0.518, -0.539, 0.79, 0.859, 0.599, 0.755, -0.592, 0.719, -0.524, -0.495, 0.96, -0.77, 0.978, 0.935, -0.404, -0.293, -0.713, 0.59, 0.59, 0.779, -0.024, -0.027, -0.091, 0.035, -0.011, -0.298, 0.16, -0.066, 0.593, 0.24, 0.675, 0.215, 0.398, 0.613, 0.143, -0.156, -0.434, 0.752, -0.798, 0.721, 0.219, 0.868, 0.692, -0.37, -0.7, -0.609, 0.146, -0.926, 0.839, 0.062, 0.192, -0.978, -0.918, -0.217, -0.932, -0.075, 0.34, 0.037, 0.305, 0.151, 0.59, -0.755, -0.821, -0.108, -0.143, 0.632, -0.556, 0.075, -0.599, 0.192, 0.947, 0.184, 0.67, 0.51, 0.438, -0.714, 0.413, 0.901, 0.805, 0.661, 0.385, 0.509, -0.206, 0.705, 0.394, -0.326, 0.543, -0.739, 0.18, 0.586, 0.271, 0.126, 0.031, -0.025, -0.604, 0.072, 0.502, -0.208, -0.218, -0.083, 0.582, -0.058, 0.269, -0.859, -0.349, 0.709, 0.918, -0.434, 0.047, -0.49, -0.966, 0.855, -0.33, 0.716, -0.927, -0.593, -0.086, 0.268, 0.413, 0.66, 0.242, -0.021, 0.328, -0.393, 0.161, -0.977, 0.962, -0.496, 0.268, 0.83, 0.244, -0.811, 0.596, 0.996, -0.373, 0.627, -0.088, 0.505, 0.92, 0.892, 0.462, 0.001, -0.75, 0.192, 0.254, 0.987, -0.326, -0.647, -0.259, -0.685, -0.277, -0.456, 0.839, -0.776, 0.857, -0.428, -0.968, 0.827, 0.548, -0.71, 0.956, -0.211, 0.159, -0.37, -0.314, -0.816, 0.097, -0.231, 0.27, -0.294, 0.081, 0.176, -0.642, -0.31, -0.593, 0.756, 0.518, -0.499, -0.752, 0.291, -0.692, 0.999, 0.777, -0.634, 0.894, -0.527, -0.991, -0.316, 0.993, 0.785, -0.923, -0.139, 0.386, -0.343, 0.552, -0.889, -0.793, 0.459, 0.064, -0.894, -0.436, -0.957, 0.056, -0.5, 0.732, 0.739, -0.333, -0.324, -0.582, 0.795, 0.138, -0.51, 0.484, -0.607, -0.006, 0.217, 0.965, 0.732, -0.406, 0.515, 0.089, -0.044, -0.472, 0.678, 0.082, 0.425, -0.018, 0.12, 0.001, 0.192, -0.95, 0.953, -0.033, -0.12, -0.351, 0.157, -0.197, 0.56, 0.491, 0.67, 0.964, -0.477, 0.3, -0.92, -0.035, 0.759, -0.772, -0.15, -0.397, 0.198, 0.295, -0.333, -0.558, 0.073, -0.561, 0.962, -0.933, -0.774, 0.751, 0.939, 0.152, 0.396, -0.769, 0.947, 0.845, 0.493, -0.556, 0.148, -0.476, -0.92, -0.483, 0.987, -0.574, -0.631, -0.946, 0.172, 0.024, 0.123, 0.058, 0.369, -0.718, -0.607, -0.587, 0.939, -0.886, 0.071, -0.561, 0.006, -0.558, 0.263, 0.092, 0.826, -0.043, 0.14, -0.296, -0.789, 0.727, -0.216, 0.438, 0.069, -0.646, -0.106, -0.627, -0.145, -0.549, 0.756, -0.035, 0.432, 0.556, -0.145, 0.298, 0.741, 0.06, 0.34, 0.756, -0.338, -0.013, -0.424, -0.522, -0.075, -0.595, -0.848, -0.34, 0.111, -0.744, -0.09, 0.37, 0.659, 0.305, 0.315, -0.464, 0.082, -0.626, -0.13, -0.391, 0.276, 0.847, -0.996, 0.659, 0.087, -0.324, -0.546, 0.791, 0.374, -0.025, -0.506, 0.766, 